digraph Tree {
0 [label="X[2] <= 2011.5000\ngini = 0.892294692933\nsamples = 13032", shape="box"] ;
1 [label="X[0] <= 5.5000\ngini = 0.898934811448\nsamples = 10824", shape="box"] ;
0 -> 1 ;
2 [label="X[2] <= 1987.5000\ngini = 0.887195343183\nsamples = 2006", shape="box"] ;
1 -> 2 ;
3 [label="X[1] <= 0.9500\ngini = 0.71911743359\nsamples = 83", shape="box"] ;
2 -> 3 ;
4 [label="X[2] <= 1985.5000\ngini = 0.61181640625\nsamples = 64", shape="box"] ;
3 -> 4 ;
5 [label="X[2] <= 1980.5000\ngini = 0.562482045389\nsamples = 59", shape="box"] ;
4 -> 5 ;
6 [label="X[1] <= 0.3050\ngini = 0.72\nsamples = 5", shape="box"] ;
5 -> 6 ;
7 [label="gini = 0.0000\nsamples = 2\nvalue = [ 0.  0.  0.  0.  2.  0.  0.  0.  0.  0.  0.  0.]", shape="box"] ;
6 -> 7 ;
8 [label="X[1] <= 0.4150\ngini = 0.666666666667\nsamples = 3", shape="box"] ;
6 -> 8 ;
9 [label="gini = 0.0000\nsamples = 1\nvalue = [ 0.  0.  1.  0.  0.  0.  0.  0.  0.  0.  0.  0.]", shape="box"] ;
8 -> 9 ;
10 [label="X[1] <= 0.6300\ngini = 0.5\nsamples = 2", shape="box"] ;
8 -> 10 ;
11 [label="gini = 0.0000\nsamples = 1\nvalue = [ 1.  0.  0.  0.  0.  0.  0.  0.  0.  0.  0.  0.]", shape="box"] ;
10 -> 11 ;
12 [label="gini = 0.0000\nsamples = 1\nvalue = [ 0.  0.  0.  0.  0.  1.  0.  0.  0.  0.  0.  0.]", shape="box"] ;
10 -> 12 ;
13 [label="X[1] <= 0.4250\ngini = 0.506858710562\nsamples = 54", shape="box"] ;
5 -> 13 ;
14 [label="X[2] <= 1983.5000\ngini = 0.375\nsamples = 32", shape="box"] ;
13 -> 14 ;
15 [label="X[1] <= 0.2450\ngini = 0.346666666667\nsamples = 30", shape="box"] ;
14 -> 15 ;
16 [label="X[1] <= 0.2300\ngini = 0.53125\nsamples = 8", shape="box"] ;
15 -> 16 ;
17 [label="X[2] <= 1981.5000\ngini = 0.448979591837\nsamples = 7", shape="box"] ;
16 -> 17 ;
18 [label="X[1] <= 0.1900\ngini = 0.625\nsamples = 4", shape="box"] ;
17 -> 18 ;
19 [label="gini = 0.0000\nsamples = 1\nvalue = [ 0.  0.  1.  0.  0.  0.  0.  0.  0.  0.  0.  0.]", shape="box"] ;
18 -> 19 ;
20 [label="X[1] <= 0.2150\ngini = 0.666666666667\nsamples = 3", shape="box"] ;
18 -> 20 ;
21 [label="gini = 0.0000\nsamples = 1\nvalue = [ 1.  0.  0.  0.  0.  0.  0.  0.  0.  0.  0.  0.]", shape="box"] ;
20 -> 21 ;
22 [label="gini = 0.5000\nsamples = 2\nvalue = [ 0.  0.  1.  0.  0.  0.  0.  0.  1.  0.  0.  0.]", shape="box"] ;
20 -> 22 ;
23 [label="gini = 0.0000\nsamples = 3\nvalue = [ 0.  0.  3.  0.  0.  0.  0.  0.  0.  0.  0.  0.]", shape="box"] ;
17 -> 23 ;
24 [label="gini = 0.0000\nsamples = 1\nvalue = [ 0.  0.  0.  0.  0.  0.  0.  0.  1.  0.  0.  0.]", shape="box"] ;
16 -> 24 ;
25 [label="X[1] <= 0.3850\ngini = 0.247933884298\nsamples = 22", shape="box"] ;
15 -> 25 ;
26 [label="X[1] <= 0.3350\ngini = 0.1171875\nsamples = 16", shape="box"] ;
25 -> 26 ;
27 [label="gini = 0.0000\nsamples = 10\nvalue = [  0.   0.  10.   0.   0.   0.   0.   0.   0.   0.   0.   0.]", shape="box"] ;
26 -> 27 ;
28 [label="X[1] <= 0.3500\ngini = 0.277777777778\nsamples = 6", shape="box"] ;
26 -> 28 ;
29 [label="X[2] <= 1981.5000\ngini = 0.444444444444\nsamples = 3", shape="box"] ;
28 -> 29 ;
30 [label="gini = 0.5000\nsamples = 2\nvalue = [ 0.  0.  1.  0.  0.  0.  0.  0.  1.  0.  0.  0.]", shape="box"] ;
29 -> 30 ;
31 [label="gini = 0.0000\nsamples = 1\nvalue = [ 0.  0.  1.  0.  0.  0.  0.  0.  0.  0.  0.  0.]", shape="box"] ;
29 -> 31 ;
32 [label="gini = 0.0000\nsamples = 3\nvalue = [ 0.  0.  3.  0.  0.  0.  0.  0.  0.  0.  0.  0.]", shape="box"] ;
28 -> 32 ;
33 [label="X[2] <= 1982.5000\ngini = 0.5\nsamples = 6", shape="box"] ;
25 -> 33 ;
34 [label="X[2] <= 1981.5000\ngini = 0.32\nsamples = 5", shape="box"] ;
33 -> 34 ;
35 [label="gini = 0.0000\nsamples = 3\nvalue = [ 0.  0.  3.  0.  0.  0.  0.  0.  0.  0.  0.  0.]", shape="box"] ;
34 -> 35 ;
36 [label="X[1] <= 0.3950\ngini = 0.5\nsamples = 2", shape="box"] ;
34 -> 36 ;
37 [label="gini = 0.0000\nsamples = 1\nvalue = [ 0.  0.  0.  0.  0.  0.  0.  1.  0.  0.  0.  0.]", shape="box"] ;
36 -> 37 ;
38 [label="gini = 0.0000\nsamples = 1\nvalue = [ 0.  0.  1.  0.  0.  0.  0.  0.  0.  0.  0.  0.]", shape="box"] ;
36 -> 38 ;
39 [label="gini = 0.0000\nsamples = 1\nvalue = [ 0.  0.  0.  1.  0.  0.  0.  0.  0.  0.  0.  0.]", shape="box"] ;
33 -> 39 ;
40 [label="X[1] <= 0.1450\ngini = 0.5\nsamples = 2", shape="box"] ;
14 -> 40 ;
41 [label="gini = 0.0000\nsamples = 1\nvalue = [ 0.  0.  1.  0.  0.  0.  0.  0.  0.  0.  0.  0.]", shape="box"] ;
40 -> 41 ;
42 [label="gini = 0.0000\nsamples = 1\nvalue = [ 0.  0.  0.  0.  0.  0.  0.  1.  0.  0.  0.  0.]", shape="box"] ;
40 -> 42 ;
43 [label="X[1] <= 0.4550\ngini = 0.644628099174\nsamples = 22", shape="box"] ;
13 -> 43 ;
44 [label="X[2] <= 1983.0000\ngini = 0.5\nsamples = 2", shape="box"] ;
43 -> 44 ;
45 [label="gini = 0.0000\nsamples = 1\nvalue = [ 0.  0.  0.  0.  0.  0.  0.  0.  0.  1.  0.  0.]", shape="box"] ;
44 -> 45 ;
46 [label="gini = 0.0000\nsamples = 1\nvalue = [ 0.  0.  0.  0.  0.  0.  1.  0.  0.  0.  0.  0.]", shape="box"] ;
44 -> 46 ;
47 [label="X[2] <= 1981.5000\ngini = 0.585\nsamples = 20", shape="box"] ;
43 -> 47 ;
48 [label="X[1] <= 0.6800\ngini = 0.277777777778\nsamples = 6", shape="box"] ;
47 -> 48 ;
49 [label="X[1] <= 0.5450\ngini = 0.444444444444\nsamples = 3", shape="box"] ;
48 -> 49 ;
50 [label="gini = 0.0000\nsamples = 1\nvalue = [ 0.  0.  1.  0.  0.  0.  0.  0.  0.  0.  0.  0.]", shape="box"] ;
49 -> 50 ;
51 [label="gini = 0.5000\nsamples = 2\nvalue = [ 0.  0.  1.  0.  0.  0.  1.  0.  0.  0.  0.  0.]", shape="box"] ;
49 -> 51 ;
52 [label="gini = 0.0000\nsamples = 3\nvalue = [ 0.  0.  3.  0.  0.  0.  0.  0.  0.  0.  0.  0.]", shape="box"] ;
48 -> 52 ;
53 [label="X[2] <= 1982.5000\ngini = 0.65306122449\nsamples = 14", shape="box"] ;
47 -> 53 ;
54 [label="X[1] <= 0.7450\ngini = 0.710743801653\nsamples = 11", shape="box"] ;
53 -> 54 ;
55 [label="X[1] <= 0.6750\ngini = 0.716049382716\nsamples = 9", shape="box"] ;
54 -> 55 ;
56 [label="X[1] <= 0.5200\ngini = 0.65625\nsamples = 8", shape="box"] ;
55 -> 56 ;
57 [label="gini = 0.6667\nsamples = 3\nvalue = [ 1.  0.  1.  0.  0.  0.  0.  0.  1.  0.  0.  0.]", shape="box"] ;
56 -> 57 ;
58 [label="X[1] <= 0.6000\ngini = 0.56\nsamples = 5", shape="box"] ;
56 -> 58 ;
59 [label="X[1] <= 0.5600\ngini = 0.5\nsamples = 2", shape="box"] ;
58 -> 59 ;
60 [label="gini = 0.0000\nsamples = 1\nvalue = [ 0.  0.  1.  0.  0.  0.  0.  0.  0.  0.  0.  0.]", shape="box"] ;
59 -> 60 ;
61 [label="gini = 0.0000\nsamples = 1\nvalue = [ 0.  0.  0.  0.  0.  0.  1.  0.  0.  0.  0.  0.]", shape="box"] ;
59 -> 61 ;
62 [label="X[1] <= 0.6250\ngini = 0.444444444444\nsamples = 3", shape="box"] ;
58 -> 62 ;
63 [label="gini = 0.5000\nsamples = 2\nvalue = [ 0.  0.  1.  0.  0.  0.  0.  0.  1.  0.  0.  0.]", shape="box"] ;
62 -> 63 ;
64 [label="gini = 0.0000\nsamples = 1\nvalue = [ 0.  0.  1.  0.  0.  0.  0.  0.  0.  0.  0.  0.]", shape="box"] ;
62 -> 64 ;
65 [label="gini = 0.0000\nsamples = 1\nvalue = [ 0.  1.  0.  0.  0.  0.  0.  0.  0.  0.  0.  0.]", shape="box"] ;
55 -> 65 ;
66 [label="gini = 0.0000\nsamples = 2\nvalue = [ 0.  0.  0.  0.  0.  0.  0.  0.  2.  0.  0.  0.]", shape="box"] ;
54 -> 66 ;
67 [label="gini = 0.0000\nsamples = 3\nvalue = [ 0.  0.  3.  0.  0.  0.  0.  0.  0.  0.  0.  0.]", shape="box"] ;
53 -> 67 ;
68 [label="X[1] <= 0.3300\ngini = 0.48\nsamples = 5", shape="box"] ;
4 -> 68 ;
69 [label="X[2] <= 1986.5000\ngini = 0.444444444444\nsamples = 3", shape="box"] ;
68 -> 69 ;
70 [label="gini = 0.0000\nsamples = 1\nvalue = [ 1.  0.  0.  0.  0.  0.  0.  0.  0.  0.  0.  0.]", shape="box"] ;
69 -> 70 ;
71 [label="X[1] <= 0.1700\ngini = 0.5\nsamples = 2", shape="box"] ;
69 -> 71 ;
72 [label="gini = 0.0000\nsamples = 1\nvalue = [ 1.  0.  0.  0.  0.  0.  0.  0.  0.  0.  0.  0.]", shape="box"] ;
71 -> 72 ;
73 [label="gini = 0.0000\nsamples = 1\nvalue = [ 0.  0.  0.  0.  0.  0.  0.  0.  1.  0.  0.  0.]", shape="box"] ;
71 -> 73 ;
74 [label="gini = 0.0000\nsamples = 2\nvalue = [ 0.  0.  0.  0.  0.  0.  0.  0.  2.  0.  0.  0.]", shape="box"] ;
68 -> 74 ;
75 [label="X[2] <= 1981.5000\ngini = 0.753462603878\nsamples = 19", shape="box"] ;
3 -> 75 ;
76 [label="X[2] <= 1980.5000\ngini = 0.673469387755\nsamples = 14", shape="box"] ;
75 -> 76 ;
77 [label="X[1] <= 1.9550\ngini = 0.5\nsamples = 4", shape="box"] ;
76 -> 77 ;
78 [label="gini = 0.0000\nsamples = 2\nvalue = [ 0.  0.  0.  0.  2.  0.  0.  0.  0.  0.  0.  0.]", shape="box"] ;
77 -> 78 ;
79 [label="gini = 0.0000\nsamples = 2\nvalue = [ 0.  0.  0.  0.  0.  0.  0.  0.  2.  0.  0.  0.]", shape="box"] ;
77 -> 79 ;
80 [label="X[1] <= 1.4100\ngini = 0.64\nsamples = 10", shape="box"] ;
76 -> 80 ;
81 [label="X[1] <= 1.0100\ngini = 0.32\nsamples = 5", shape="box"] ;
80 -> 81 ;
82 [label="gini = 0.0000\nsamples = 1\nvalue = [ 0.  1.  0.  0.  0.  0.  0.  0.  0.  0.  0.  0.]", shape="box"] ;
81 -> 82 ;
83 [label="gini = 0.0000\nsamples = 4\nvalue = [ 0.  0.  0.  0.  0.  0.  0.  0.  4.  0.  0.  0.]", shape="box"] ;
81 -> 83 ;
84 [label="X[1] <= 1.5550\ngini = 0.72\nsamples = 5", shape="box"] ;
80 -> 84 ;
85 [label="gini = 0.0000\nsamples = 1\nvalue = [ 0.  1.  0.  0.  0.  0.  0.  0.  0.  0.  0.  0.]", shape="box"] ;
84 -> 85 ;
86 [label="X[1] <= 1.8100\ngini = 0.75\nsamples = 4", shape="box"] ;
84 -> 86 ;
87 [label="gini = 0.0000\nsamples = 1\nvalue = [ 0.  0.  0.  0.  0.  0.  1.  0.  0.  0.  0.  0.]", shape="box"] ;
86 -> 87 ;
88 [label="X[1] <= 2.0500\ngini = 0.666666666667\nsamples = 3", shape="box"] ;
86 -> 88 ;
89 [label="gini = 0.0000\nsamples = 1\nvalue = [ 0.  0.  1.  0.  0.  0.  0.  0.  0.  0.  0.  0.]", shape="box"] ;
88 -> 89 ;
90 [label="X[1] <= 3.3150\ngini = 0.5\nsamples = 2", shape="box"] ;
88 -> 90 ;
91 [label="gini = 0.0000\nsamples = 1\nvalue = [ 0.  0.  0.  0.  0.  0.  0.  0.  1.  0.  0.  0.]", shape="box"] ;
90 -> 91 ;
92 [label="gini = 0.0000\nsamples = 1\nvalue = [ 0.  1.  0.  0.  0.  0.  0.  0.  0.  0.  0.  0.]", shape="box"] ;
90 -> 92 ;
93 [label="X[1] <= 1.6150\ngini = 0.64\nsamples = 5", shape="box"] ;
75 -> 93 ;
94 [label="X[1] <= 1.1300\ngini = 0.444444444444\nsamples = 3", shape="box"] ;
93 -> 94 ;
95 [label="gini = 0.0000\nsamples = 1\nvalue = [ 0.  1.  0.  0.  0.  0.  0.  0.  0.  0.  0.  0.]", shape="box"] ;
94 -> 95 ;
96 [label="X[1] <= 1.3850\ngini = 0.5\nsamples = 2", shape="box"] ;
94 -> 96 ;
97 [label="gini = 0.0000\nsamples = 1\nvalue = [ 0.  0.  0.  0.  0.  0.  0.  1.  0.  0.  0.  0.]", shape="box"] ;
96 -> 97 ;
98 [label="gini = 0.0000\nsamples = 1\nvalue = [ 0.  1.  0.  0.  0.  0.  0.  0.  0.  0.  0.  0.]", shape="box"] ;
96 -> 98 ;
99 [label="gini = 0.0000\nsamples = 2\nvalue = [ 0.  0.  0.  0.  0.  0.  2.  0.  0.  0.  0.  0.]", shape="box"] ;
93 -> 99 ;
100 [label="X[2] <= 2003.0000\ngini = 0.886789335328\nsamples = 1923", shape="box"] ;
2 -> 100 ;
101 [label="X[0] <= 4.0000\ngini = 0.895592582639\nsamples = 122", shape="box"] ;
100 -> 101 ;
102 [label="X[2] <= 1994.5000\ngini = 0.844008264463\nsamples = 44", shape="box"] ;
101 -> 102 ;
103 [label="X[1] <= 0.3100\ngini = 0.444444444444\nsamples = 3", shape="box"] ;
102 -> 103 ;
104 [label="gini = 0.0000\nsamples = 2\nvalue = [ 0.  0.  0.  0.  0.  0.  2.  0.  0.  0.  0.  0.]", shape="box"] ;
103 -> 104 ;
105 [label="gini = 0.0000\nsamples = 1\nvalue = [ 0.  0.  1.  0.  0.  0.  0.  0.  0.  0.  0.  0.]", shape="box"] ;
103 -> 105 ;
106 [label="X[1] <= 0.3900\ngini = 0.825698988697\nsamples = 41", shape="box"] ;
102 -> 106 ;
107 [label="X[1] <= 0.3350\ngini = 0.791551882461\nsamples = 33", shape="box"] ;
106 -> 107 ;
108 [label="X[1] <= 0.0450\ngini = 0.801248699272\nsamples = 31", shape="box"] ;
107 -> 108 ;
109 [label="gini = 0.0000\nsamples = 1\nvalue = [ 0.  0.  1.  0.  0.  0.  0.  0.  0.  0.  0.  0.]", shape="box"] ;
108 -> 109 ;
110 [label="X[1] <= 0.1750\ngini = 0.788888888889\nsamples = 30", shape="box"] ;
108 -> 110 ;
111 [label="X[1] <= 0.1600\ngini = 0.743764172336\nsamples = 21", shape="box"] ;
110 -> 111 ;
112 [label="X[1] <= 0.0950\ngini = 0.73\nsamples = 20", shape="box"] ;
111 -> 112 ;
113 [label="X[1] <= 0.0850\ngini = 0.78\nsamples = 10", shape="box"] ;
112 -> 113 ;
114 [label="X[1] <= 0.0550\ngini = 0.740740740741\nsamples = 9", shape="box"] ;
113 -> 114 ;
115 [label="X[2] <= 2000.0000\ngini = 0.5\nsamples = 2", shape="box"] ;
114 -> 115 ;
116 [label="gini = 0.0000\nsamples = 1\nvalue = [ 1.  0.  0.  0.  0.  0.  0.  0.  0.  0.  0.  0.]", shape="box"] ;
115 -> 116 ;
117 [label="gini = 0.0000\nsamples = 1\nvalue = [ 0.  0.  0.  0.  0.  1.  0.  0.  0.  0.  0.  0.]", shape="box"] ;
115 -> 117 ;
118 [label="X[2] <= 2000.5000\ngini = 0.69387755102\nsamples = 7", shape="box"] ;
114 -> 118 ;
119 [label="X[2] <= 1999.0000\ngini = 0.666666666667\nsamples = 6", shape="box"] ;
118 -> 119 ;
120 [label="X[2] <= 1996.5000\ngini = 0.5\nsamples = 2", shape="box"] ;
119 -> 120 ;
121 [label="gini = 0.0000\nsamples = 1\nvalue = [ 0.  0.  0.  1.  0.  0.  0.  0.  0.  0.  0.  0.]", shape="box"] ;
120 -> 121 ;
122 [label="gini = 0.0000\nsamples = 1\nvalue = [ 0.  0.  0.  0.  0.  0.  0.  1.  0.  0.  0.  0.]", shape="box"] ;
120 -> 122 ;
123 [label="X[1] <= 0.0650\ngini = 0.625\nsamples = 4", shape="box"] ;
119 -> 123 ;
124 [label="gini = 0.5000\nsamples = 2\nvalue = [ 1.  0.  0.  1.  0.  0.  0.  0.  0.  0.  0.  0.]", shape="box"] ;
123 -> 124 ;
125 [label="X[1] <= 0.0750\ngini = 0.5\nsamples = 2", shape="box"] ;
123 -> 125 ;
126 [label="gini = 0.0000\nsamples = 1\nvalue = [ 0.  0.  0.  0.  0.  1.  0.  0.  0.  0.  0.  0.]", shape="box"] ;
125 -> 126 ;
127 [label="gini = 0.0000\nsamples = 1\nvalue = [ 0.  0.  0.  1.  0.  0.  0.  0.  0.  0.  0.  0.]", shape="box"] ;
125 -> 127 ;
128 [label="gini = 0.0000\nsamples = 1\nvalue = [ 0.  0.  0.  0.  0.  0.  0.  1.  0.  0.  0.  0.]", shape="box"] ;
118 -> 128 ;
129 [label="gini = 0.0000\nsamples = 1\nvalue = [ 0.  0.  0.  0.  0.  0.  0.  0.  0.  0.  0.  1.]", shape="box"] ;
113 -> 129 ;
130 [label="X[1] <= 0.1450\ngini = 0.58\nsamples = 10", shape="box"] ;
112 -> 130 ;
131 [label="X[1] <= 0.1150\ngini = 0.567901234568\nsamples = 9", shape="box"] ;
130 -> 131 ;
132 [label="X[2] <= 1999.5000\ngini = 0.48\nsamples = 5", shape="box"] ;
131 -> 132 ;
133 [label="gini = 0.4444\nsamples = 3\nvalue = [ 0.  0.  0.  1.  0.  2.  0.  0.  0.  0.  0.  0.]", shape="box"] ;
132 -> 133 ;
134 [label="gini = 0.0000\nsamples = 2\nvalue = [ 0.  0.  0.  2.  0.  0.  0.  0.  0.  0.  0.  0.]", shape="box"] ;
132 -> 134 ;
135 [label="X[1] <= 0.1300\ngini = 0.375\nsamples = 4", shape="box"] ;
131 -> 135 ;
136 [label="gini = 0.5000\nsamples = 2\nvalue = [ 0.  1.  0.  0.  0.  1.  0.  0.  0.  0.  0.  0.]", shape="box"] ;
135 -> 136 ;
137 [label="gini = 0.0000\nsamples = 2\nvalue = [ 0.  0.  0.  0.  0.  2.  0.  0.  0.  0.  0.  0.]", shape="box"] ;
135 -> 137 ;
138 [label="gini = 0.0000\nsamples = 1\nvalue = [ 0.  0.  0.  1.  0.  0.  0.  0.  0.  0.  0.  0.]", shape="box"] ;
130 -> 138 ;
139 [label="gini = 0.0000\nsamples = 1\nvalue = [ 0.  0.  0.  0.  0.  0.  0.  1.  0.  0.  0.  0.]", shape="box"] ;
111 -> 139 ;
140 [label="X[2] <= 2000.5000\ngini = 0.765432098765\nsamples = 9", shape="box"] ;
110 -> 140 ;
141 [label="X[2] <= 1998.5000\ngini = 0.69387755102\nsamples = 7", shape="box"] ;
140 -> 141 ;
142 [label="gini = 0.0000\nsamples = 1\nvalue = [ 0.  0.  0.  0.  0.  0.  0.  0.  1.  0.  0.  0.]", shape="box"] ;
141 -> 142 ;
143 [label="X[2] <= 1999.5000\ngini = 0.611111111111\nsamples = 6", shape="box"] ;
141 -> 143 ;
144 [label="gini = 0.0000\nsamples = 2\nvalue = [ 2.  0.  0.  0.  0.  0.  0.  0.  0.  0.  0.  0.]", shape="box"] ;
143 -> 144 ;
145 [label="X[1] <= 0.1900\ngini = 0.625\nsamples = 4", shape="box"] ;
143 -> 145 ;
146 [label="gini = 0.0000\nsamples = 1\nvalue = [ 1.  0.  0.  0.  0.  0.  0.  0.  0.  0.  0.  0.]", shape="box"] ;
145 -> 146 ;
147 [label="X[1] <= 0.2100\ngini = 0.444444444444\nsamples = 3", shape="box"] ;
145 -> 147 ;
148 [label="gini = 0.0000\nsamples = 2\nvalue = [ 0.  0.  0.  0.  0.  0.  0.  0.  0.  0.  0.  2.]", shape="box"] ;
147 -> 148 ;
149 [label="gini = 0.0000\nsamples = 1\nvalue = [ 0.  0.  0.  0.  0.  1.  0.  0.  0.  0.  0.  0.]", shape="box"] ;
147 -> 149 ;
150 [label="gini = 0.0000\nsamples = 2\nvalue = [ 0.  0.  0.  2.  0.  0.  0.  0.  0.  0.  0.  0.]", shape="box"] ;
140 -> 150 ;
151 [label="gini = 0.0000\nsamples = 2\nvalue = [ 0.  0.  0.  0.  0.  2.  0.  0.  0.  0.  0.  0.]", shape="box"] ;
107 -> 151 ;
152 [label="X[1] <= 2.1150\ngini = 0.8125\nsamples = 8", shape="box"] ;
106 -> 152 ;
153 [label="X[1] <= 0.8050\ngini = 0.775510204082\nsamples = 7", shape="box"] ;
152 -> 153 ;
154 [label="X[1] <= 0.4650\ngini = 0.5\nsamples = 2", shape="box"] ;
153 -> 154 ;
155 [label="gini = 0.0000\nsamples = 1\nvalue = [ 0.  0.  0.  0.  0.  0.  0.  1.  0.  0.  0.  0.]", shape="box"] ;
154 -> 155 ;
156 [label="gini = 0.0000\nsamples = 1\nvalue = [ 0.  0.  0.  0.  0.  0.  0.  0.  0.  1.  0.  0.]", shape="box"] ;
154 -> 156 ;
157 [label="X[1] <= 1.5050\ngini = 0.72\nsamples = 5", shape="box"] ;
153 -> 157 ;
158 [label="X[1] <= 1.1150\ngini = 0.625\nsamples = 4", shape="box"] ;
157 -> 158 ;
159 [label="gini = 0.0000\nsamples = 1\nvalue = [ 1.  0.  0.  0.  0.  0.  0.  0.  0.  0.  0.  0.]", shape="box"] ;
158 -> 159 ;
160 [label="X[2] <= 1999.5000\ngini = 0.666666666667\nsamples = 3", shape="box"] ;
158 -> 160 ;
161 [label="X[1] <= 1.1900\ngini = 0.5\nsamples = 2", shape="box"] ;
160 -> 161 ;
162 [label="gini = 0.0000\nsamples = 1\nvalue = [ 0.  0.  0.  1.  0.  0.  0.  0.  0.  0.  0.  0.]", shape="box"] ;
161 -> 162 ;
163 [label="gini = 0.0000\nsamples = 1\nvalue = [ 1.  0.  0.  0.  0.  0.  0.  0.  0.  0.  0.  0.]", shape="box"] ;
161 -> 163 ;
164 [label="gini = 0.0000\nsamples = 1\nvalue = [ 0.  0.  1.  0.  0.  0.  0.  0.  0.  0.  0.  0.]", shape="box"] ;
160 -> 164 ;
165 [label="gini = 0.0000\nsamples = 1\nvalue = [ 0.  0.  0.  0.  0.  0.  0.  1.  0.  0.  0.  0.]", shape="box"] ;
157 -> 165 ;
166 [label="gini = 0.0000\nsamples = 1\nvalue = [ 0.  1.  0.  0.  0.  0.  0.  0.  0.  0.  0.  0.]", shape="box"] ;
152 -> 166 ;
167 [label="X[1] <= 5.8650\ngini = 0.871794871795\nsamples = 78", shape="box"] ;
101 -> 167 ;
168 [label="X[1] <= 2.1850\ngini = 0.877314814815\nsamples = 72", shape="box"] ;
167 -> 168 ;
169 [label="X[1] <= 0.0950\ngini = 0.875\nsamples = 60", shape="box"] ;
168 -> 169 ;
170 [label="X[2] <= 1994.5000\ngini = 0.444444444444\nsamples = 3", shape="box"] ;
169 -> 170 ;
171 [label="gini = 0.0000\nsamples = 1\nvalue = [ 0.  0.  1.  0.  0.  0.  0.  0.  0.  0.  0.  0.]", shape="box"] ;
170 -> 171 ;
172 [label="X[2] <= 1999.0000\ngini = 0.5\nsamples = 2", shape="box"] ;
170 -> 172 ;
173 [label="gini = 0.0000\nsamples = 1\nvalue = [ 1.  0.  0.  0.  0.  0.  0.  0.  0.  0.  0.  0.]", shape="box"] ;
172 -> 173 ;
174 [label="gini = 0.0000\nsamples = 1\nvalue = [ 0.  0.  1.  0.  0.  0.  0.  0.  0.  0.  0.  0.]", shape="box"] ;
172 -> 174 ;
175 [label="X[2] <= 1998.5000\ngini = 0.870421668206\nsamples = 57", shape="box"] ;
169 -> 175 ;
176 [label="X[1] <= 1.9650\ngini = 0.849480968858\nsamples = 34", shape="box"] ;
175 -> 176 ;
177 [label="X[2] <= 1991.5000\ngini = 0.841796875\nsamples = 32", shape="box"] ;
176 -> 177 ;
178 [label="X[1] <= 0.3050\ngini = 0.84693877551\nsamples = 14", shape="box"] ;
177 -> 178 ;
179 [label="X[1] <= 0.2300\ngini = 0.444444444444\nsamples = 3", shape="box"] ;
178 -> 179 ;
180 [label="gini = 0.0000\nsamples = 1\nvalue = [ 0.  0.  0.  0.  0.  0.  0.  0.  0.  0.  1.  0.]", shape="box"] ;
179 -> 180 ;
181 [label="gini = 0.0000\nsamples = 2\nvalue = [ 0.  2.  0.  0.  0.  0.  0.  0.  0.  0.  0.  0.]", shape="box"] ;
179 -> 181 ;
182 [label="X[1] <= 1.1200\ngini = 0.826446280992\nsamples = 11", shape="box"] ;
178 -> 182 ;
183 [label="X[1] <= 0.3550\ngini = 0.375\nsamples = 4", shape="box"] ;
182 -> 183 ;
184 [label="gini = 0.0000\nsamples = 1\nvalue = [ 1.  0.  0.  0.  0.  0.  0.  0.  0.  0.  0.  0.]", shape="box"] ;
183 -> 184 ;
185 [label="gini = 0.0000\nsamples = 3\nvalue = [ 0.  0.  0.  0.  0.  0.  0.  0.  0.  0.  0.  3.]", shape="box"] ;
183 -> 185 ;
186 [label="X[2] <= 1990.5000\ngini = 0.816326530612\nsamples = 7", shape="box"] ;
182 -> 186 ;
187 [label="X[2] <= 1988.5000\ngini = 0.72\nsamples = 5", shape="box"] ;
186 -> 187 ;
188 [label="gini = 0.0000\nsamples = 1\nvalue = [ 0.  1.  0.  0.  0.  0.  0.  0.  0.  0.  0.  0.]", shape="box"] ;
187 -> 188 ;
189 [label="X[2] <= 1989.5000\ngini = 0.625\nsamples = 4", shape="box"] ;
187 -> 189 ;
190 [label="X[1] <= 1.4450\ngini = 0.666666666667\nsamples = 3", shape="box"] ;
189 -> 190 ;
191 [label="gini = 0.0000\nsamples = 1\nvalue = [ 0.  0.  0.  0.  1.  0.  0.  0.  0.  0.  0.  0.]", shape="box"] ;
190 -> 191 ;
192 [label="X[1] <= 1.7750\ngini = 0.5\nsamples = 2", shape="box"] ;
190 -> 192 ;
193 [label="gini = 0.0000\nsamples = 1\nvalue = [ 1.  0.  0.  0.  0.  0.  0.  0.  0.  0.  0.  0.]", shape="box"] ;
192 -> 193 ;
194 [label="gini = 0.0000\nsamples = 1\nvalue = [ 0.  0.  0.  0.  0.  0.  1.  0.  0.  0.  0.  0.]", shape="box"] ;
192 -> 194 ;
195 [label="gini = 0.0000\nsamples = 1\nvalue = [ 0.  0.  0.  0.  0.  0.  1.  0.  0.  0.  0.  0.]", shape="box"] ;
189 -> 195 ;
196 [label="X[1] <= 1.4500\ngini = 0.5\nsamples = 2", shape="box"] ;
186 -> 196 ;
197 [label="gini = 0.0000\nsamples = 1\nvalue = [ 0.  0.  0.  0.  0.  0.  0.  1.  0.  0.  0.  0.]", shape="box"] ;
196 -> 197 ;
198 [label="gini = 0.0000\nsamples = 1\nvalue = [ 0.  0.  0.  1.  0.  0.  0.  0.  0.  0.  0.  0.]", shape="box"] ;
196 -> 198 ;
199 [label="X[1] <= 0.3600\ngini = 0.765432098765\nsamples = 18", shape="box"] ;
177 -> 199 ;
200 [label="X[2] <= 1996.5000\ngini = 0.448979591837\nsamples = 7", shape="box"] ;
199 -> 200 ;
201 [label="X[2] <= 1995.5000\ngini = 0.32\nsamples = 5", shape="box"] ;
200 -> 201 ;
202 [label="X[1] <= 0.2650\ngini = 0.444444444444\nsamples = 3", shape="box"] ;
201 -> 202 ;
203 [label="gini = 0.0000\nsamples = 1\nvalue = [ 0.  0.  0.  0.  0.  0.  1.  0.  0.  0.  0.  0.]", shape="box"] ;
202 -> 203 ;
204 [label="X[1] <= 0.3100\ngini = 0.5\nsamples = 2", shape="box"] ;
202 -> 204 ;
205 [label="gini = 0.0000\nsamples = 1\nvalue = [ 0.  0.  0.  0.  1.  0.  0.  0.  0.  0.  0.  0.]", shape="box"] ;
204 -> 205 ;
206 [label="gini = 0.0000\nsamples = 1\nvalue = [ 0.  0.  0.  0.  0.  0.  1.  0.  0.  0.  0.  0.]", shape="box"] ;
204 -> 206 ;
207 [label="gini = 0.0000\nsamples = 2\nvalue = [ 0.  0.  0.  0.  0.  0.  2.  0.  0.  0.  0.  0.]", shape="box"] ;
201 -> 207 ;
208 [label="X[1] <= 0.2250\ngini = 0.5\nsamples = 2", shape="box"] ;
200 -> 208 ;
209 [label="gini = 0.0000\nsamples = 1\nvalue = [ 0.  0.  0.  0.  0.  0.  1.  0.  0.  0.  0.  0.]", shape="box"] ;
208 -> 209 ;
210 [label="gini = 0.0000\nsamples = 1\nvalue = [ 0.  0.  0.  0.  0.  0.  0.  0.  0.  1.  0.  0.]", shape="box"] ;
208 -> 210 ;
211 [label="X[1] <= 0.3750\ngini = 0.826446280992\nsamples = 11", shape="box"] ;
199 -> 211 ;
212 [label="gini = 0.0000\nsamples = 1\nvalue = [ 0.  0.  0.  0.  0.  0.  0.  0.  0.  0.  1.  0.]", shape="box"] ;
211 -> 212 ;
213 [label="X[1] <= 1.3350\ngini = 0.82\nsamples = 10", shape="box"] ;
211 -> 213 ;
214 [label="X[1] <= 0.8100\ngini = 0.72\nsamples = 5", shape="box"] ;
213 -> 214 ;
215 [label="X[1] <= 0.3900\ngini = 0.666666666667\nsamples = 3", shape="box"] ;
214 -> 215 ;
216 [label="gini = 0.0000\nsamples = 1\nvalue = [ 0.  1.  0.  0.  0.  0.  0.  0.  0.  0.  0.  0.]", shape="box"] ;
215 -> 216 ;
217 [label="X[2] <= 1996.0000\ngini = 0.5\nsamples = 2", shape="box"] ;
215 -> 217 ;
218 [label="gini = 0.0000\nsamples = 1\nvalue = [ 0.  0.  0.  0.  0.  0.  1.  0.  0.  0.  0.  0.]", shape="box"] ;
217 -> 218 ;
219 [label="gini = 0.0000\nsamples = 1\nvalue = [ 0.  0.  0.  0.  0.  0.  0.  0.  0.  0.  0.  1.]", shape="box"] ;
217 -> 219 ;
220 [label="gini = 0.0000\nsamples = 2\nvalue = [ 0.  0.  0.  0.  2.  0.  0.  0.  0.  0.  0.  0.]", shape="box"] ;
214 -> 220 ;
221 [label="X[1] <= 1.4650\ngini = 0.72\nsamples = 5", shape="box"] ;
213 -> 221 ;
222 [label="gini = 0.0000\nsamples = 2\nvalue = [ 0.  0.  0.  0.  0.  0.  0.  0.  0.  2.  0.  0.]", shape="box"] ;
221 -> 222 ;
223 [label="X[1] <= 1.5450\ngini = 0.666666666667\nsamples = 3", shape="box"] ;
221 -> 223 ;
224 [label="gini = 0.0000\nsamples = 1\nvalue = [ 0.  1.  0.  0.  0.  0.  0.  0.  0.  0.  0.  0.]", shape="box"] ;
223 -> 224 ;
225 [label="X[1] <= 1.7700\ngini = 0.5\nsamples = 2", shape="box"] ;
223 -> 225 ;
226 [label="gini = 0.0000\nsamples = 1\nvalue = [ 0.  0.  0.  0.  0.  0.  0.  0.  0.  0.  1.  0.]", shape="box"] ;
225 -> 226 ;
227 [label="gini = 0.0000\nsamples = 1\nvalue = [ 0.  0.  0.  0.  0.  0.  1.  0.  0.  0.  0.  0.]", shape="box"] ;
225 -> 227 ;
228 [label="gini = 0.0000\nsamples = 2\nvalue = [ 2.  0.  0.  0.  0.  0.  0.  0.  0.  0.  0.  0.]", shape="box"] ;
176 -> 228 ;
229 [label="X[1] <= 0.1300\ngini = 0.835538752363\nsamples = 23", shape="box"] ;
175 -> 229 ;
230 [label="gini = 0.0000\nsamples = 1\nvalue = [ 0.  0.  0.  0.  0.  0.  0.  0.  0.  1.  0.  0.]", shape="box"] ;
229 -> 230 ;
231 [label="X[1] <= 0.8200\ngini = 0.826446280992\nsamples = 22", shape="box"] ;
229 -> 231 ;
232 [label="X[1] <= 0.4250\ngini = 0.727272727273\nsamples = 11", shape="box"] ;
231 -> 232 ;
233 [label="X[1] <= 0.2750\ngini = 0.79012345679\nsamples = 9", shape="box"] ;
232 -> 233 ;
234 [label="X[1] <= 0.1550\ngini = 0.611111111111\nsamples = 6", shape="box"] ;
233 -> 234 ;
235 [label="X[2] <= 2000.5000\ngini = 0.444444444444\nsamples = 3", shape="box"] ;
234 -> 235 ;
236 [label="gini = 0.5000\nsamples = 2\nvalue = [ 0.  0.  0.  1.  0.  0.  0.  0.  0.  0.  0.  1.]", shape="box"] ;
235 -> 236 ;
237 [label="gini = 0.0000\nsamples = 1\nvalue = [ 0.  0.  0.  0.  0.  0.  0.  0.  0.  0.  0.  1.]", shape="box"] ;
235 -> 237 ;
238 [label="X[1] <= 0.2600\ngini = 0.444444444444\nsamples = 3", shape="box"] ;
234 -> 238 ;
239 [label="gini = 0.0000\nsamples = 2\nvalue = [ 2.  0.  0.  0.  0.  0.  0.  0.  0.  0.  0.  0.]", shape="box"] ;
238 -> 239 ;
240 [label="gini = 0.0000\nsamples = 1\nvalue = [ 0.  0.  0.  0.  0.  0.  0.  0.  0.  0.  0.  1.]", shape="box"] ;
238 -> 240 ;
241 [label="X[2] <= 1999.5000\ngini = 0.666666666667\nsamples = 3", shape="box"] ;
233 -> 241 ;
242 [label="X[1] <= 0.3050\ngini = 0.5\nsamples = 2", shape="box"] ;
241 -> 242 ;
243 [label="gini = 0.0000\nsamples = 1\nvalue = [ 0.  0.  0.  0.  0.  0.  0.  0.  0.  1.  0.  0.]", shape="box"] ;
242 -> 243 ;
244 [label="gini = 0.0000\nsamples = 1\nvalue = [ 0.  0.  1.  0.  0.  0.  0.  0.  0.  0.  0.  0.]", shape="box"] ;
242 -> 244 ;
245 [label="gini = 0.0000\nsamples = 1\nvalue = [ 0.  1.  0.  0.  0.  0.  0.  0.  0.  0.  0.  0.]", shape="box"] ;
241 -> 245 ;
246 [label="gini = 0.0000\nsamples = 2\nvalue = [ 0.  0.  0.  0.  0.  0.  0.  0.  0.  0.  0.  2.]", shape="box"] ;
232 -> 246 ;
247 [label="X[1] <= 1.4450\ngini = 0.842975206612\nsamples = 11", shape="box"] ;
231 -> 247 ;
248 [label="X[1] <= 1.1400\ngini = 0.734693877551\nsamples = 7", shape="box"] ;
247 -> 248 ;
249 [label="X[1] <= 0.8600\ngini = 0.444444444444\nsamples = 3", shape="box"] ;
248 -> 249 ;
250 [label="gini = 0.0000\nsamples = 1\nvalue = [ 0.  0.  0.  0.  1.  0.  0.  0.  0.  0.  0.  0.]", shape="box"] ;
249 -> 250 ;
251 [label="gini = 0.0000\nsamples = 2\nvalue = [ 0.  0.  0.  0.  0.  0.  0.  0.  0.  0.  2.  0.]", shape="box"] ;
249 -> 251 ;
252 [label="X[2] <= 1999.5000\ngini = 0.625\nsamples = 4", shape="box"] ;
248 -> 252 ;
253 [label="gini = 0.0000\nsamples = 1\nvalue = [ 0.  0.  0.  0.  1.  0.  0.  0.  0.  0.  0.  0.]", shape="box"] ;
252 -> 253 ;
254 [label="X[1] <= 1.2050\ngini = 0.444444444444\nsamples = 3", shape="box"] ;
252 -> 254 ;
255 [label="gini = 0.0000\nsamples = 1\nvalue = [ 1.  0.  0.  0.  0.  0.  0.  0.  0.  0.  0.  0.]", shape="box"] ;
254 -> 255 ;
256 [label="X[1] <= 1.2800\ngini = 0.5\nsamples = 2", shape="box"] ;
254 -> 256 ;
257 [label="gini = 0.0000\nsamples = 1\nvalue = [ 0.  0.  0.  0.  0.  0.  1.  0.  0.  0.  0.  0.]", shape="box"] ;
256 -> 257 ;
258 [label="gini = 0.0000\nsamples = 1\nvalue = [ 1.  0.  0.  0.  0.  0.  0.  0.  0.  0.  0.  0.]", shape="box"] ;
256 -> 258 ;
259 [label="X[2] <= 2000.5000\ngini = 0.625\nsamples = 4", shape="box"] ;
247 -> 259 ;
260 [label="gini = 0.0000\nsamples = 1\nvalue = [ 0.  0.  0.  0.  0.  0.  0.  0.  0.  0.  0.  1.]", shape="box"] ;
259 -> 260 ;
261 [label="X[1] <= 1.6450\ngini = 0.666666666667\nsamples = 3", shape="box"] ;
259 -> 261 ;
262 [label="gini = 0.0000\nsamples = 1\nvalue = [ 0.  0.  0.  0.  0.  0.  0.  0.  0.  0.  0.  1.]", shape="box"] ;
261 -> 262 ;
263 [label="X[1] <= 1.7950\ngini = 0.5\nsamples = 2", shape="box"] ;
261 -> 263 ;
264 [label="gini = 0.0000\nsamples = 1\nvalue = [ 0.  0.  1.  0.  0.  0.  0.  0.  0.  0.  0.  0.]", shape="box"] ;
263 -> 264 ;
265 [label="gini = 0.0000\nsamples = 1\nvalue = [ 0.  0.  0.  1.  0.  0.  0.  0.  0.  0.  0.  0.]", shape="box"] ;
263 -> 265 ;
266 [label="X[2] <= 1991.0000\ngini = 0.708333333333\nsamples = 12", shape="box"] ;
168 -> 266 ;
267 [label="X[1] <= 4.3750\ngini = 0.5\nsamples = 2", shape="box"] ;
266 -> 267 ;
268 [label="gini = 0.0000\nsamples = 1\nvalue = [ 0.  0.  0.  0.  0.  0.  0.  1.  0.  0.  0.  0.]", shape="box"] ;
267 -> 268 ;
269 [label="gini = 0.0000\nsamples = 1\nvalue = [ 0.  0.  0.  0.  0.  0.  1.  0.  0.  0.  0.  0.]", shape="box"] ;
267 -> 269 ;
270 [label="X[1] <= 5.2500\ngini = 0.6\nsamples = 10", shape="box"] ;
266 -> 270 ;
271 [label="X[2] <= 1996.5000\ngini = 0.518518518519\nsamples = 9", shape="box"] ;
270 -> 271 ;
272 [label="gini = 0.0000\nsamples = 3\nvalue = [ 0.  3.  0.  0.  0.  0.  0.  0.  0.  0.  0.  0.]", shape="box"] ;
271 -> 272 ;
273 [label="X[2] <= 1998.5000\ngini = 0.666666666667\nsamples = 6", shape="box"] ;
271 -> 273 ;
274 [label="X[1] <= 2.2850\ngini = 0.666666666667\nsamples = 3", shape="box"] ;
273 -> 274 ;
275 [label="gini = 0.0000\nsamples = 1\nvalue = [ 0.  0.  0.  1.  0.  0.  0.  0.  0.  0.  0.  0.]", shape="box"] ;
274 -> 275 ;
276 [label="X[1] <= 3.0250\ngini = 0.5\nsamples = 2", shape="box"] ;
274 -> 276 ;
277 [label="gini = 0.0000\nsamples = 1\nvalue = [ 0.  0.  0.  0.  0.  0.  0.  0.  0.  0.  0.  1.]", shape="box"] ;
276 -> 277 ;
278 [label="gini = 0.0000\nsamples = 1\nvalue = [ 0.  0.  0.  0.  0.  0.  0.  0.  0.  0.  1.  0.]", shape="box"] ;
276 -> 278 ;
279 [label="gini = 0.0000\nsamples = 3\nvalue = [ 0.  3.  0.  0.  0.  0.  0.  0.  0.  0.  0.  0.]", shape="box"] ;
273 -> 279 ;
280 [label="gini = 0.0000\nsamples = 1\nvalue = [ 0.  0.  0.  0.  1.  0.  0.  0.  0.  0.  0.  0.]", shape="box"] ;
270 -> 280 ;
281 [label="X[2] <= 1994.0000\ngini = 0.5\nsamples = 6", shape="box"] ;
167 -> 281 ;
282 [label="X[2] <= 1990.5000\ngini = 0.5\nsamples = 2", shape="box"] ;
281 -> 282 ;
283 [label="gini = 0.0000\nsamples = 1\nvalue = [ 0.  0.  0.  0.  0.  0.  1.  0.  0.  0.  0.  0.]", shape="box"] ;
282 -> 283 ;
284 [label="gini = 0.0000\nsamples = 1\nvalue = [ 0.  0.  0.  1.  0.  0.  0.  0.  0.  0.  0.  0.]", shape="box"] ;
282 -> 284 ;
285 [label="gini = 0.0000\nsamples = 4\nvalue = [ 0.  0.  0.  0.  0.  0.  0.  0.  0.  0.  0.  4.]", shape="box"] ;
281 -> 285 ;
286 [label="X[1] <= 0.2950\ngini = 0.882963101812\nsamples = 1801", shape="box"] ;
100 -> 286 ;
287 [label="X[2] <= 2006.5000\ngini = 0.882170988936\nsamples = 1362", shape="box"] ;
286 -> 287 ;
288 [label="X[1] <= 0.0750\ngini = 0.884179161861\nsamples = 204", shape="box"] ;
287 -> 288 ;
289 [label="X[1] <= 0.0550\ngini = 0.850723140496\nsamples = 88", shape="box"] ;
288 -> 289 ;
290 [label="X[1] <= 0.0150\ngini = 0.840513983371\nsamples = 63", shape="box"] ;
289 -> 290 ;
291 [label="gini = 0.7755\nsamples = 7\nvalue = [ 0.  0.  2.  0.  1.  0.  2.  0.  0.  0.  1.  1.]", shape="box"] ;
290 -> 291 ;
292 [label="X[2] <= 2004.5000\ngini = 0.834183673469\nsamples = 56", shape="box"] ;
290 -> 292 ;
293 [label="X[1] <= 0.0450\ngini = 0.5\nsamples = 2", shape="box"] ;
292 -> 293 ;
294 [label="gini = 0.0000\nsamples = 1\nvalue = [ 0.  0.  0.  0.  1.  0.  0.  0.  0.  0.  0.  0.]", shape="box"] ;
293 -> 294 ;
295 [label="gini = 0.0000\nsamples = 1\nvalue = [ 1.  0.  0.  0.  0.  0.  0.  0.  0.  0.  0.  0.]", shape="box"] ;
293 -> 295 ;
296 [label="X[1] <= 0.0450\ngini = 0.836076817558\nsamples = 54", shape="box"] ;
292 -> 296 ;
297 [label="X[2] <= 2005.5000\ngini = 0.83125\nsamples = 40", shape="box"] ;
296 -> 297 ;
298 [label="X[1] <= 0.0250\ngini = 0.740740740741\nsamples = 9", shape="box"] ;
297 -> 298 ;
299 [label="gini = 0.7500\nsamples = 4\nvalue = [ 1.  1.  0.  0.  1.  0.  0.  0.  0.  1.  0.  0.]", shape="box"] ;
298 -> 299 ;
300 [label="X[1] <= 0.0350\ngini = 0.56\nsamples = 5", shape="box"] ;
298 -> 300 ;
301 [label="gini = 0.5000\nsamples = 2\nvalue = [ 0.  0.  1.  0.  1.  0.  0.  0.  0.  0.  0.  0.]", shape="box"] ;
300 -> 301 ;
302 [label="gini = 0.4444\nsamples = 3\nvalue = [ 0.  0.  0.  0.  2.  0.  0.  0.  0.  0.  0.  1.]", shape="box"] ;
300 -> 302 ;
303 [label="X[1] <= 0.0250\ngini = 0.842872008325\nsamples = 31", shape="box"] ;
297 -> 303 ;
304 [label="gini = 0.7574\nsamples = 13\nvalue = [ 0.  0.  2.  1.  5.  0.  1.  0.  0.  1.  0.  3.]", shape="box"] ;
303 -> 304 ;
305 [label="X[1] <= 0.0350\ngini = 0.864197530864\nsamples = 18", shape="box"] ;
303 -> 305 ;
306 [label="gini = 0.8438\nsamples = 8\nvalue = [ 0.  1.  2.  1.  1.  0.  0.  0.  0.  1.  1.  1.]", shape="box"] ;
305 -> 306 ;
307 [label="gini = 0.8400\nsamples = 10\nvalue = [ 2.  0.  2.  1.  2.  0.  0.  0.  1.  1.  0.  1.]", shape="box"] ;
305 -> 307 ;
308 [label="X[2] <= 2005.5000\ngini = 0.816326530612\nsamples = 14", shape="box"] ;
296 -> 308 ;
309 [label="gini = 0.5000\nsamples = 2\nvalue = [ 0.  0.  0.  1.  0.  0.  1.  0.  0.  0.  0.  0.]", shape="box"] ;
308 -> 309 ;
310 [label="gini = 0.7917\nsamples = 12\nvalue = [ 1.  0.  3.  1.  4.  1.  1.  0.  0.  0.  0.  1.]", shape="box"] ;
308 -> 310 ;
311 [label="X[2] <= 2004.5000\ngini = 0.8448\nsamples = 25", shape="box"] ;
289 -> 311 ;
312 [label="gini = 0.0000\nsamples = 1\nvalue = [ 0.  0.  0.  1.  0.  0.  0.  0.  0.  0.  0.  0.]", shape="box"] ;
311 -> 312 ;
313 [label="X[2] <= 2005.5000\ngini = 0.833333333333\nsamples = 24", shape="box"] ;
311 -> 313 ;
314 [label="X[1] <= 0.0650\ngini = 0.86\nsamples = 10", shape="box"] ;
313 -> 314 ;
315 [label="gini = 0.8000\nsamples = 5\nvalue = [ 1.  1.  1.  0.  1.  0.  0.  0.  1.  0.  0.  0.]", shape="box"] ;
314 -> 315 ;
316 [label="gini = 0.7200\nsamples = 5\nvalue = [ 0.  0.  0.  0.  1.  0.  1.  0.  0.  0.  2.  1.]", shape="box"] ;
314 -> 316 ;
317 [label="X[1] <= 0.0650\ngini = 0.775510204082\nsamples = 14", shape="box"] ;
313 -> 317 ;
318 [label="gini = 0.8148\nsamples = 9\nvalue = [ 1.  0.  2.  0.  2.  0.  1.  0.  2.  0.  1.  0.]", shape="box"] ;
317 -> 318 ;
319 [label="gini = 0.6400\nsamples = 5\nvalue = [ 0.  0.  2.  0.  2.  0.  0.  0.  1.  0.  0.  0.]", shape="box"] ;
317 -> 319 ;
320 [label="X[2] <= 2004.5000\ngini = 0.88614744352\nsamples = 116", shape="box"] ;
288 -> 320 ;
321 [label="X[1] <= 0.0850\ngini = 0.617283950617\nsamples = 9", shape="box"] ;
320 -> 321 ;
322 [label="gini = 0.0000\nsamples = 1\nvalue = [ 0.  0.  0.  0.  0.  0.  0.  0.  0.  1.  0.  0.]", shape="box"] ;
321 -> 322 ;
323 [label="X[1] <= 0.2250\ngini = 0.53125\nsamples = 8", shape="box"] ;
321 -> 323 ;
324 [label="X[1] <= 0.1800\ngini = 0.611111111111\nsamples = 6", shape="box"] ;
323 -> 324 ;
325 [label="X[1] <= 0.1250\ngini = 0.56\nsamples = 5", shape="box"] ;
324 -> 325 ;
326 [label="X[1] <= 0.1000\ngini = 0.5\nsamples = 2", shape="box"] ;
325 -> 326 ;
327 [label="gini = 0.0000\nsamples = 1\nvalue = [ 0.  0.  0.  0.  0.  0.  1.  0.  0.  0.  0.  0.]", shape="box"] ;
326 -> 327 ;
328 [label="gini = 0.0000\nsamples = 1\nvalue = [ 0.  0.  0.  0.  1.  0.  0.  0.  0.  0.  0.  0.]", shape="box"] ;
326 -> 328 ;
329 [label="X[1] <= 0.1450\ngini = 0.444444444444\nsamples = 3", shape="box"] ;
325 -> 329 ;
330 [label="gini = 0.0000\nsamples = 1\nvalue = [ 0.  0.  0.  0.  0.  0.  1.  0.  0.  0.  0.  0.]", shape="box"] ;
329 -> 330 ;
331 [label="X[1] <= 0.1600\ngini = 0.5\nsamples = 2", shape="box"] ;
329 -> 331 ;
332 [label="gini = 0.0000\nsamples = 1\nvalue = [ 1.  0.  0.  0.  0.  0.  0.  0.  0.  0.  0.  0.]", shape="box"] ;
331 -> 332 ;
333 [label="gini = 0.0000\nsamples = 1\nvalue = [ 0.  0.  0.  0.  0.  0.  1.  0.  0.  0.  0.  0.]", shape="box"] ;
331 -> 333 ;
334 [label="gini = 0.0000\nsamples = 1\nvalue = [ 0.  0.  0.  0.  1.  0.  0.  0.  0.  0.  0.  0.]", shape="box"] ;
324 -> 334 ;
335 [label="gini = 0.0000\nsamples = 2\nvalue = [ 0.  0.  0.  0.  0.  0.  2.  0.  0.  0.  0.  0.]", shape="box"] ;
323 -> 335 ;
336 [label="X[1] <= 0.2750\ngini = 0.887064372434\nsamples = 107", shape="box"] ;
320 -> 336 ;
337 [label="X[2] <= 2005.5000\ngini = 0.88775887574\nsamples = 104", shape="box"] ;
336 -> 337 ;
338 [label="X[1] <= 0.1250\ngini = 0.872741253364\nsamples = 51", shape="box"] ;
337 -> 338 ;
339 [label="X[1] <= 0.0850\ngini = 0.880907372401\nsamples = 23", shape="box"] ;
338 -> 339 ;
340 [label="gini = 0.6667\nsamples = 3\nvalue = [ 0.  0.  0.  0.  1.  0.  1.  1.  0.  0.  0.  0.]", shape="box"] ;
339 -> 340 ;
341 [label="X[1] <= 0.0950\ngini = 0.88\nsamples = 20", shape="box"] ;
339 -> 341 ;
342 [label="gini = 0.6400\nsamples = 5\nvalue = [ 0.  2.  0.  0.  0.  0.  1.  0.  0.  0.  0.  2.]", shape="box"] ;
341 -> 342 ;
343 [label="X[1] <= 0.1050\ngini = 0.897777777778\nsamples = 15", shape="box"] ;
341 -> 343 ;
344 [label="gini = 0.6667\nsamples = 3\nvalue = [ 1.  0.  0.  0.  0.  0.  0.  1.  0.  1.  0.  0.]", shape="box"] ;
343 -> 344 ;
345 [label="X[1] <= 0.1150\ngini = 0.888888888889\nsamples = 12", shape="box"] ;
343 -> 345 ;
346 [label="gini = 0.8571\nsamples = 7\nvalue = [ 0.  1.  1.  1.  0.  0.  1.  1.  1.  0.  0.  1.]", shape="box"] ;
345 -> 346 ;
347 [label="gini = 0.8000\nsamples = 5\nvalue = [ 1.  0.  0.  0.  1.  0.  1.  0.  0.  0.  1.  1.]", shape="box"] ;
345 -> 347 ;
348 [label="X[1] <= 0.2650\ngini = 0.81887755102\nsamples = 28", shape="box"] ;
338 -> 348 ;
349 [label="X[1] <= 0.2500\ngini = 0.810650887574\nsamples = 26", shape="box"] ;
348 -> 349 ;
350 [label="X[1] <= 0.1650\ngini = 0.795138888889\nsamples = 24", shape="box"] ;
349 -> 350 ;
351 [label="X[1] <= 0.1450\ngini = 0.826530612245\nsamples = 14", shape="box"] ;
350 -> 351 ;
352 [label="X[1] <= 0.1350\ngini = 0.78125\nsamples = 8", shape="box"] ;
351 -> 352 ;
353 [label="gini = 0.6667\nsamples = 3\nvalue = [ 0.  1.  1.  0.  0.  0.  0.  0.  0.  1.  0.  0.]", shape="box"] ;
352 -> 353 ;
354 [label="gini = 0.7200\nsamples = 5\nvalue = [ 1.  0.  2.  0.  0.  0.  0.  1.  0.  0.  0.  1.]", shape="box"] ;
352 -> 354 ;
355 [label="X[1] <= 0.1550\ngini = 0.666666666667\nsamples = 6", shape="box"] ;
351 -> 355 ;
356 [label="gini = 0.0000\nsamples = 2\nvalue = [ 0.  0.  0.  0.  0.  0.  2.  0.  0.  0.  0.  0.]", shape="box"] ;
355 -> 356 ;
357 [label="gini = 0.7500\nsamples = 4\nvalue = [ 1.  0.  1.  0.  1.  0.  1.  0.  0.  0.  0.  0.]", shape="box"] ;
355 -> 357 ;
358 [label="X[1] <= 0.2050\ngini = 0.68\nsamples = 10", shape="box"] ;
350 -> 358 ;
359 [label="X[1] <= 0.1750\ngini = 0.5\nsamples = 6", shape="box"] ;
358 -> 359 ;
360 [label="gini = 0.0000\nsamples = 1\nvalue = [ 0.  0.  1.  0.  0.  0.  0.  0.  0.  0.  0.  0.]", shape="box"] ;
359 -> 360 ;
361 [label="X[1] <= 0.1850\ngini = 0.56\nsamples = 5", shape="box"] ;
359 -> 361 ;
362 [label="gini = 0.6250\nsamples = 4\nvalue = [ 0.  1.  2.  0.  0.  0.  0.  1.  0.  0.  0.  0.]", shape="box"] ;
361 -> 362 ;
363 [label="gini = 0.0000\nsamples = 1\nvalue = [ 0.  0.  1.  0.  0.  0.  0.  0.  0.  0.  0.  0.]", shape="box"] ;
361 -> 363 ;
364 [label="X[1] <= 0.2250\ngini = 0.75\nsamples = 4", shape="box"] ;
358 -> 364 ;
365 [label="gini = 0.0000\nsamples = 1\nvalue = [ 0.  1.  0.  0.  0.  0.  0.  0.  0.  0.  0.  0.]", shape="box"] ;
364 -> 365 ;
366 [label="X[1] <= 0.2350\ngini = 0.666666666667\nsamples = 3", shape="box"] ;
364 -> 366 ;
367 [label="gini = 0.5000\nsamples = 2\nvalue = [ 0.  0.  0.  0.  0.  1.  1.  0.  0.  0.  0.  0.]", shape="box"] ;
366 -> 367 ;
368 [label="gini = 0.0000\nsamples = 1\nvalue = [ 0.  0.  1.  0.  0.  0.  0.  0.  0.  0.  0.  0.]", shape="box"] ;
366 -> 368 ;
369 [label="gini = 0.5000\nsamples = 2\nvalue = [ 0.  1.  0.  0.  1.  0.  0.  0.  0.  0.  0.  0.]", shape="box"] ;
349 -> 369 ;
370 [label="gini = 0.5000\nsamples = 2\nvalue = [ 0.  0.  0.  0.  0.  0.  1.  1.  0.  0.  0.  0.]", shape="box"] ;
348 -> 370 ;
371 [label="X[1] <= 0.2250\ngini = 0.88501245995\nsamples = 53", shape="box"] ;
337 -> 371 ;
372 [label="X[1] <= 0.2150\ngini = 0.891304347826\nsamples = 46", shape="box"] ;
371 -> 372 ;
373 [label="X[1] <= 0.1950\ngini = 0.887396694215\nsamples = 44", shape="box"] ;
372 -> 373 ;
374 [label="X[1] <= 0.1250\ngini = 0.883997620464\nsamples = 41", shape="box"] ;
373 -> 374 ;
375 [label="X[1] <= 0.1150\ngini = 0.838842975207\nsamples = 22", shape="box"] ;
374 -> 375 ;
376 [label="X[1] <= 0.0850\ngini = 0.831024930748\nsamples = 19", shape="box"] ;
375 -> 376 ;
377 [label="gini = 0.5000\nsamples = 2\nvalue = [ 0.  0.  1.  0.  0.  0.  0.  0.  0.  0.  1.  0.]", shape="box"] ;
376 -> 377 ;
378 [label="X[1] <= 0.1050\ngini = 0.823529411765\nsamples = 17", shape="box"] ;
376 -> 378 ;
379 [label="X[1] <= 0.0950\ngini = 0.835555555556\nsamples = 15", shape="box"] ;
378 -> 379 ;
380 [label="gini = 0.7755\nsamples = 7\nvalue = [ 0.  0.  1.  1.  2.  0.  1.  0.  0.  0.  0.  2.]", shape="box"] ;
379 -> 380 ;
381 [label="gini = 0.8438\nsamples = 8\nvalue = [ 0.  1.  2.  1.  1.  0.  1.  0.  0.  1.  0.  1.]", shape="box"] ;
379 -> 381 ;
382 [label="gini = 0.5000\nsamples = 2\nvalue = [ 0.  0.  1.  0.  0.  0.  0.  0.  0.  0.  0.  1.]", shape="box"] ;
378 -> 382 ;
383 [label="gini = 0.4444\nsamples = 3\nvalue = [ 0.  0.  0.  0.  0.  0.  0.  0.  0.  2.  0.  1.]", shape="box"] ;
375 -> 383 ;
384 [label="X[1] <= 0.1650\ngini = 0.875346260388\nsamples = 19", shape="box"] ;
374 -> 384 ;
385 [label="X[1] <= 0.1550\ngini = 0.819444444444\nsamples = 12", shape="box"] ;
384 -> 385 ;
386 [label="X[1] <= 0.1350\ngini = 0.78\nsamples = 10", shape="box"] ;
385 -> 386 ;
387 [label="gini = 0.4444\nsamples = 3\nvalue = [ 0.  2.  1.  0.  0.  0.  0.  0.  0.  0.  0.  0.]", shape="box"] ;
386 -> 387 ;
388 [label="X[1] <= 0.1450\ngini = 0.816326530612\nsamples = 7", shape="box"] ;
386 -> 388 ;
389 [label="gini = 0.8000\nsamples = 5\nvalue = [ 0.  1.  0.  0.  1.  1.  1.  1.  0.  0.  0.  0.]", shape="box"] ;
388 -> 389 ;
390 [label="gini = 0.5000\nsamples = 2\nvalue = [ 1.  1.  0.  0.  0.  0.  0.  0.  0.  0.  0.  0.]", shape="box"] ;
388 -> 390 ;
391 [label="gini = 0.5000\nsamples = 2\nvalue = [ 0.  0.  1.  1.  0.  0.  0.  0.  0.  0.  0.  0.]", shape="box"] ;
385 -> 391 ;
392 [label="X[1] <= 0.1750\ngini = 0.775510204082\nsamples = 7", shape="box"] ;
384 -> 392 ;
393 [label="gini = 0.5000\nsamples = 2\nvalue = [ 1.  0.  0.  0.  0.  1.  0.  0.  0.  0.  0.  0.]", shape="box"] ;
392 -> 393 ;
394 [label="X[1] <= 0.1850\ngini = 0.72\nsamples = 5", shape="box"] ;
392 -> 394 ;
395 [label="gini = 0.5000\nsamples = 2\nvalue = [ 0.  0.  0.  0.  0.  0.  0.  0.  0.  1.  0.  1.]", shape="box"] ;
394 -> 395 ;
396 [label="gini = 0.6667\nsamples = 3\nvalue = [ 0.  0.  0.  0.  0.  1.  1.  0.  0.  0.  0.  1.]", shape="box"] ;
394 -> 396 ;
397 [label="X[1] <= 0.2050\ngini = 0.444444444444\nsamples = 3", shape="box"] ;
373 -> 397 ;
398 [label="gini = 0.0000\nsamples = 1\nvalue = [ 0.  0.  0.  0.  1.  0.  0.  0.  0.  0.  0.  0.]", shape="box"] ;
397 -> 398 ;
399 [label="gini = 0.5000\nsamples = 2\nvalue = [ 0.  0.  0.  0.  1.  0.  0.  1.  0.  0.  0.  0.]", shape="box"] ;
397 -> 399 ;
400 [label="gini = 0.0000\nsamples = 2\nvalue = [ 2.  0.  0.  0.  0.  0.  0.  0.  0.  0.  0.  0.]", shape="box"] ;
372 -> 400 ;
401 [label="X[1] <= 0.2550\ngini = 0.69387755102\nsamples = 7", shape="box"] ;
371 -> 401 ;
402 [label="X[1] <= 0.2400\ngini = 0.56\nsamples = 5", shape="box"] ;
401 -> 402 ;
403 [label="gini = 0.4444\nsamples = 3\nvalue = [ 0.  0.  0.  0.  0.  0.  0.  0.  0.  0.  1.  2.]", shape="box"] ;
402 -> 403 ;
404 [label="gini = 0.5000\nsamples = 2\nvalue = [ 0.  0.  1.  0.  0.  0.  0.  0.  0.  0.  0.  1.]", shape="box"] ;
402 -> 404 ;
405 [label="X[1] <= 0.2650\ngini = 0.5\nsamples = 2", shape="box"] ;
401 -> 405 ;
406 [label="gini = 0.0000\nsamples = 1\nvalue = [ 0.  0.  0.  1.  0.  0.  0.  0.  0.  0.  0.  0.]", shape="box"] ;
405 -> 406 ;
407 [label="gini = 0.0000\nsamples = 1\nvalue = [ 0.  0.  1.  0.  0.  0.  0.  0.  0.  0.  0.  0.]", shape="box"] ;
405 -> 407 ;
408 [label="X[1] <= 0.2850\ngini = 0.444444444444\nsamples = 3", shape="box"] ;
336 -> 408 ;
409 [label="gini = 0.5000\nsamples = 2\nvalue = [ 0.  1.  0.  0.  0.  0.  1.  0.  0.  0.  0.  0.]", shape="box"] ;
408 -> 409 ;
410 [label="gini = 0.0000\nsamples = 1\nvalue = [ 0.  1.  0.  0.  0.  0.  0.  0.  0.  0.  0.  0.]", shape="box"] ;
408 -> 410 ;
411 [label="X[0] <= 2.5000\ngini = 0.879022852217\nsamples = 1158", shape="box"] ;
287 -> 411 ;
412 [label="X[1] <= 0.2350\ngini = 0.849584278156\nsamples = 63", shape="box"] ;
411 -> 412 ;
413 [label="X[1] <= 0.0550\ngini = 0.84385917764\nsamples = 61", shape="box"] ;
412 -> 413 ;
414 [label="X[1] <= 0.0450\ngini = 0.769230769231\nsamples = 13", shape="box"] ;
413 -> 414 ;
415 [label="X[1] <= 0.0150\ngini = 0.72\nsamples = 10", shape="box"] ;
414 -> 415 ;
416 [label="gini = 0.5000\nsamples = 4\nvalue = [ 2.  0.  2.  0.  0.  0.  0.  0.  0.  0.  0.  0.]", shape="box"] ;
415 -> 416 ;
417 [label="X[1] <= 0.0250\ngini = 0.777777777778\nsamples = 6", shape="box"] ;
415 -> 417 ;
418 [label="gini = 0.5000\nsamples = 2\nvalue = [ 0.  0.  0.  0.  1.  0.  0.  0.  1.  0.  0.  0.]", shape="box"] ;
417 -> 418 ;
419 [label="X[1] <= 0.0350\ngini = 0.625\nsamples = 4", shape="box"] ;
417 -> 419 ;
420 [label="gini = 0.6667\nsamples = 3\nvalue = [ 1.  0.  1.  0.  0.  0.  0.  0.  0.  0.  1.  0.]", shape="box"] ;
419 -> 420 ;
421 [label="gini = 0.0000\nsamples = 1\nvalue = [ 1.  0.  0.  0.  0.  0.  0.  0.  0.  0.  0.  0.]", shape="box"] ;
419 -> 421 ;
422 [label="gini = 0.4444\nsamples = 3\nvalue = [ 0.  0.  0.  0.  2.  0.  0.  0.  1.  0.  0.  0.]", shape="box"] ;
414 -> 422 ;
423 [label="X[1] <= 0.2150\ngini = 0.838541666667\nsamples = 48", shape="box"] ;
413 -> 423 ;
424 [label="X[1] <= 0.1950\ngini = 0.825679012346\nsamples = 45", shape="box"] ;
423 -> 424 ;
425 [label="X[1] <= 0.1450\ngini = 0.841535965387\nsamples = 43", shape="box"] ;
424 -> 425 ;
426 [label="X[1] <= 0.1350\ngini = 0.828125\nsamples = 32", shape="box"] ;
425 -> 426 ;
427 [label="X[1] <= 0.1250\ngini = 0.819979188345\nsamples = 31", shape="box"] ;
426 -> 427 ;
428 [label="X[1] <= 0.0950\ngini = 0.7904\nsamples = 25", shape="box"] ;
427 -> 428 ;
429 [label="X[1] <= 0.0750\ngini = 0.809917355372\nsamples = 11", shape="box"] ;
428 -> 429 ;
430 [label="X[1] <= 0.0650\ngini = 0.666666666667\nsamples = 3", shape="box"] ;
429 -> 430 ;
431 [label="gini = 0.5000\nsamples = 2\nvalue = [ 0.  0.  1.  0.  0.  0.  0.  0.  0.  0.  1.  0.]", shape="box"] ;
430 -> 431 ;
432 [label="gini = 0.0000\nsamples = 1\nvalue = [ 0.  0.  0.  0.  0.  0.  0.  0.  0.  1.  0.  0.]", shape="box"] ;
430 -> 432 ;
433 [label="X[1] <= 0.0850\ngini = 0.75\nsamples = 8", shape="box"] ;
429 -> 433 ;
434 [label="gini = 0.6400\nsamples = 5\nvalue = [ 0.  0.  2.  0.  0.  0.  2.  0.  1.  0.  0.  0.]", shape="box"] ;
433 -> 434 ;
435 [label="gini = 0.6667\nsamples = 3\nvalue = [ 0.  0.  0.  0.  1.  0.  1.  1.  0.  0.  0.  0.]", shape="box"] ;
433 -> 435 ;
436 [label="X[1] <= 0.1050\ngini = 0.683673469388\nsamples = 14", shape="box"] ;
428 -> 436 ;
437 [label="gini = 0.5600\nsamples = 5\nvalue = [ 0.  1.  3.  0.  1.  0.  0.  0.  0.  0.  0.  0.]", shape="box"] ;
436 -> 437 ;
438 [label="X[1] <= 0.1150\ngini = 0.666666666667\nsamples = 9", shape="box"] ;
436 -> 438 ;
439 [label="gini = 0.6250\nsamples = 4\nvalue = [ 1.  0.  2.  0.  0.  1.  0.  0.  0.  0.  0.  0.]", shape="box"] ;
438 -> 439 ;
440 [label="gini = 0.6400\nsamples = 5\nvalue = [ 2.  0.  2.  0.  0.  0.  0.  1.  0.  0.  0.  0.]", shape="box"] ;
438 -> 440 ;
441 [label="gini = 0.7778\nsamples = 6\nvalue = [ 0.  0.  1.  0.  0.  0.  1.  1.  0.  2.  0.  1.]", shape="box"] ;
427 -> 441 ;
442 [label="gini = 0.0000\nsamples = 1\nvalue = [ 0.  1.  0.  0.  0.  0.  0.  0.  0.  0.  0.  0.]", shape="box"] ;
426 -> 442 ;
443 [label="X[1] <= 0.1750\ngini = 0.793388429752\nsamples = 11", shape="box"] ;
425 -> 443 ;
444 [label="X[1] <= 0.1550\ngini = 0.722222222222\nsamples = 6", shape="box"] ;
443 -> 444 ;
445 [label="gini = 0.6667\nsamples = 3\nvalue = [ 0.  0.  1.  1.  1.  0.  0.  0.  0.  0.  0.  0.]", shape="box"] ;
444 -> 445 ;
446 [label="gini = 0.6667\nsamples = 3\nvalue = [ 0.  0.  1.  1.  0.  0.  0.  0.  0.  0.  0.  1.]", shape="box"] ;
444 -> 446 ;
447 [label="gini = 0.7200\nsamples = 5\nvalue = [ 1.  0.  1.  0.  2.  0.  0.  1.  0.  0.  0.  0.]", shape="box"] ;
443 -> 447 ;
448 [label="gini = 0.0000\nsamples = 2\nvalue = [ 0.  0.  2.  0.  0.  0.  0.  0.  0.  0.  0.  0.]", shape="box"] ;
424 -> 448 ;
449 [label="X[1] <= 0.2250\ngini = 0.666666666667\nsamples = 3", shape="box"] ;
423 -> 449 ;
450 [label="gini = 0.0000\nsamples = 1\nvalue = [ 0.  1.  0.  0.  0.  0.  0.  0.  0.  0.  0.  0.]", shape="box"] ;
449 -> 450 ;
451 [label="gini = 0.5000\nsamples = 2\nvalue = [ 0.  0.  0.  0.  1.  1.  0.  0.  0.  0.  0.  0.]", shape="box"] ;
449 -> 451 ;
452 [label="gini = 0.0000\nsamples = 2\nvalue = [ 0.  0.  0.  0.  0.  0.  0.  0.  0.  2.  0.  0.]", shape="box"] ;
412 -> 452 ;
453 [label="X[2] <= 2010.5000\ngini = 0.877619732699\nsamples = 1095", shape="box"] ;
411 -> 453 ;
454 [label="X[2] <= 2009.5000\ngini = 0.877644433358\nsamples = 987", shape="box"] ;
453 -> 454 ;
455 [label="X[1] <= 0.0550\ngini = 0.882949742604\nsamples = 774", shape="box"] ;
454 -> 455 ;
456 [label="X[2] <= 2007.5000\ngini = 0.871365290996\nsamples = 302", shape="box"] ;
455 -> 456 ;
457 [label="X[1] <= 0.0150\ngini = 0.872694824509\nsamples = 82", shape="box"] ;
456 -> 457 ;
458 [label="gini = 0.7107\nsamples = 11\nvalue = [ 0.  0.  4.  0.  4.  0.  1.  0.  0.  1.  0.  1.]", shape="box"] ;
457 -> 458 ;
459 [label="X[0] <= 3.5000\ngini = 0.877603650069\nsamples = 71", shape="box"] ;
457 -> 459 ;
460 [label="gini = 0.0000\nsamples = 1\nvalue = [ 0.  0.  0.  0.  0.  0.  0.  0.  1.  0.  0.  0.]", shape="box"] ;
459 -> 460 ;
461 [label="X[1] <= 0.0450\ngini = 0.875102040816\nsamples = 70", shape="box"] ;
459 -> 461 ;
462 [label="X[1] <= 0.0250\ngini = 0.882164471342\nsamples = 53", shape="box"] ;
461 -> 462 ;
463 [label="gini = 0.8785\nsamples = 24\nvalue = [ 3.  2.  4.  1.  4.  0.  3.  0.  1.  3.  2.  1.]", shape="box"] ;
462 -> 463 ;
464 [label="X[1] <= 0.0350\ngini = 0.863258026159\nsamples = 29", shape="box"] ;
462 -> 464 ;
465 [label="gini = 0.8281\nsamples = 16\nvalue = [ 2.  0.  3.  4.  0.  0.  2.  1.  0.  3.  1.  0.]", shape="box"] ;
464 -> 465 ;
466 [label="gini = 0.8639\nsamples = 13\nvalue = [ 2.  0.  1.  1.  1.  0.  3.  0.  1.  2.  1.  1.]", shape="box"] ;
464 -> 466 ;
467 [label="gini = 0.7958\nsamples = 17\nvalue = [ 0.  2.  6.  3.  1.  0.  2.  0.  0.  2.  1.  0.]", shape="box"] ;
461 -> 467 ;
468 [label="X[2] <= 2008.5000\ngini = 0.861363636364\nsamples = 220", shape="box"] ;
456 -> 468 ;
469 [label="X[0] <= 3.5000\ngini = 0.847545219638\nsamples = 129", shape="box"] ;
468 -> 469 ;
470 [label="gini = 0.0000\nsamples = 1\nvalue = [ 0.  0.  0.  1.  0.  0.  0.  0.  0.  0.  0.  0.]", shape="box"] ;
469 -> 470 ;
471 [label="X[1] <= 0.0150\ngini = 0.848754882812\nsamples = 128", shape="box"] ;
469 -> 471 ;
472 [label="gini = 0.8254\nsamples = 21\nvalue = [ 0.  0.  3.  4.  5.  0.  3.  0.  0.  3.  0.  3.]", shape="box"] ;
471 -> 472 ;
473 [label="X[1] <= 0.0250\ngini = 0.84863306839\nsamples = 107", shape="box"] ;
471 -> 473 ;
474 [label="gini = 0.8432\nsamples = 26\nvalue = [ 3.  1.  1.  4.  6.  0.  1.  1.  2.  6.  1.  0.]", shape="box"] ;
473 -> 474 ;
475 [label="X[1] <= 0.0350\ngini = 0.840115836001\nsamples = 81", shape="box"] ;
473 -> 475 ;
476 [label="gini = 0.8378\nsamples = 30\nvalue = [ 1.  0.  4.  8.  5.  0.  2.  3.  0.  5.  1.  1.]", shape="box"] ;
475 -> 476 ;
477 [label="X[1] <= 0.0450\ngini = 0.832756632065\nsamples = 51", shape="box"] ;
475 -> 477 ;
478 [label="gini = 0.8099\nsamples = 22\nvalue = [ 0.  0.  2.  6.  6.  0.  1.  1.  1.  3.  0.  2.]", shape="box"] ;
477 -> 478 ;
479 [label="gini = 0.8466\nsamples = 29\nvalue = [ 1.  1.  2.  7.  7.  0.  2.  1.  1.  3.  1.  3.]", shape="box"] ;
477 -> 479 ;
480 [label="X[1] <= 0.0150\ngini = 0.86994324357\nsamples = 91", shape="box"] ;
468 -> 480 ;
481 [label="gini = 0.8367\nsamples = 14\nvalue = [ 0.  0.  1.  3.  1.  0.  2.  0.  0.  2.  2.  3.]", shape="box"] ;
480 -> 481 ;
482 [label="X[1] <= 0.0450\ngini = 0.865913307472\nsamples = 77", shape="box"] ;
480 -> 482 ;
483 [label="X[1] <= 0.0350\ngini = 0.860672220626\nsamples = 59", shape="box"] ;
482 -> 483 ;
484 [label="X[1] <= 0.0250\ngini = 0.859410430839\nsamples = 42", shape="box"] ;
483 -> 484 ;
485 [label="gini = 0.8640\nsamples = 25\nvalue = [ 2.  0.  3.  4.  5.  0.  2.  3.  0.  4.  1.  1.]", shape="box"] ;
484 -> 485 ;
486 [label="gini = 0.8304\nsamples = 17\nvalue = [ 0.  1.  4.  4.  3.  0.  1.  1.  0.  2.  0.  1.]", shape="box"] ;
484 -> 486 ;
487 [label="gini = 0.7889\nsamples = 17\nvalue = [ 0.  0.  5.  1.  2.  0.  5.  0.  1.  2.  0.  1.]", shape="box"] ;
483 -> 487 ;
488 [label="gini = 0.8395\nsamples = 18\nvalue = [ 1.  0.  2.  3.  4.  1.  1.  0.  0.  2.  0.  4.]", shape="box"] ;
482 -> 488 ;
489 [label="X[2] <= 2008.5000\ngini = 0.886706406205\nsamples = 472", shape="box"] ;
455 -> 489 ;
490 [label="X[1] <= 0.2250\ngini = 0.888714187623\nsamples = 317", shape="box"] ;
489 -> 490 ;
491 [label="X[1] <= 0.0750\ngini = 0.889489619377\nsamples = 272", shape="box"] ;
490 -> 491 ;
492 [label="X[2] <= 2007.5000\ngini = 0.890989287965\nsamples = 69", shape="box"] ;
491 -> 492 ;
493 [label="X[1] <= 0.0650\ngini = 0.890738813736\nsamples = 31", shape="box"] ;
492 -> 493 ;
494 [label="gini = 0.8750\nsamples = 16\nvalue = [ 1.  1.  2.  1.  3.  2.  2.  0.  0.  0.  2.  2.]", shape="box"] ;
493 -> 494 ;
495 [label="gini = 0.8711\nsamples = 15\nvalue = [ 3.  2.  2.  2.  1.  0.  1.  0.  1.  0.  1.  2.]", shape="box"] ;
493 -> 495 ;
496 [label="X[1] <= 0.0650\ngini = 0.872576177285\nsamples = 38", shape="box"] ;
492 -> 496 ;
497 [label="gini = 0.8571\nsamples = 21\nvalue = [ 4.  1.  2.  3.  2.  0.  2.  0.  0.  3.  0.  4.]", shape="box"] ;
496 -> 497 ;
498 [label="gini = 0.8651\nsamples = 17\nvalue = [ 2.  1.  2.  4.  1.  0.  0.  1.  0.  2.  2.  2.]", shape="box"] ;
496 -> 498 ;
499 [label="X[1] <= 0.1350\ngini = 0.883253658181\nsamples = 203", shape="box"] ;
491 -> 499 ;
500 [label="X[1] <= 0.0950\ngini = 0.881763787721\nsamples = 124", shape="box"] ;
499 -> 500 ;
501 [label="X[2] <= 2007.5000\ngini = 0.878225441376\nsamples = 47", shape="box"] ;
500 -> 501 ;
502 [label="X[1] <= 0.0850\ngini = 0.835555555556\nsamples = 15", shape="box"] ;
501 -> 502 ;
503 [label="gini = 0.8163\nsamples = 7\nvalue = [ 1.  1.  0.  0.  1.  2.  1.  0.  0.  0.  0.  1.]", shape="box"] ;
502 -> 503 ;
504 [label="gini = 0.7500\nsamples = 8\nvalue = [ 0.  1.  0.  0.  3.  0.  0.  1.  0.  1.  0.  2.]", shape="box"] ;
502 -> 504 ;
505 [label="X[1] <= 0.0850\ngini = 0.865234375\nsamples = 32", shape="box"] ;
501 -> 505 ;
506 [label="gini = 0.8643\nsamples = 19\nvalue = [ 1.  0.  4.  3.  3.  0.  3.  1.  1.  1.  1.  1.]", shape="box"] ;
505 -> 506 ;
507 [label="gini = 0.8047\nsamples = 13\nvalue = [ 2.  0.  1.  0.  4.  0.  2.  0.  0.  0.  2.  2.]", shape="box"] ;
505 -> 507 ;
508 [label="X[1] <= 0.1150\ngini = 0.873671782763\nsamples = 77", shape="box"] ;
500 -> 508 ;
509 [label="X[1] <= 0.1050\ngini = 0.846419753086\nsamples = 45", shape="box"] ;
508 -> 509 ;
510 [label="X[2] <= 2007.5000\ngini = 0.851239669421\nsamples = 22", shape="box"] ;
509 -> 510 ;
511 [label="gini = 0.8395\nsamples = 9\nvalue = [ 1.  0.  1.  1.  2.  1.  0.  0.  0.  2.  1.  0.]", shape="box"] ;
510 -> 511 ;
512 [label="gini = 0.8402\nsamples = 13\nvalue = [ 0.  0.  2.  2.  2.  0.  1.  1.  0.  3.  2.  0.]", shape="box"] ;
510 -> 512 ;
513 [label="X[2] <= 2007.5000\ngini = 0.809073724008\nsamples = 23", shape="box"] ;
509 -> 513 ;
514 [label="gini = 0.8163\nsamples = 14\nvalue = [ 0.  0.  3.  4.  2.  0.  2.  0.  0.  1.  1.  1.]", shape="box"] ;
513 -> 514 ;
515 [label="gini = 0.7654\nsamples = 9\nvalue = [ 0.  0.  2.  2.  3.  0.  1.  0.  0.  1.  0.  0.]", shape="box"] ;
513 -> 515 ;
516 [label="X[2] <= 2007.5000\ngini = 0.875\nsamples = 32", shape="box"] ;
508 -> 516 ;
517 [label="X[1] <= 0.1250\ngini = 0.844444444444\nsamples = 15", shape="box"] ;
516 -> 517 ;
518 [label="gini = 0.8333\nsamples = 6\nvalue = [ 0.  0.  0.  1.  1.  1.  0.  1.  0.  1.  0.  1.]", shape="box"] ;
517 -> 518 ;
519 [label="gini = 0.7901\nsamples = 9\nvalue = [ 0.  1.  0.  0.  3.  0.  2.  1.  0.  1.  0.  1.]", shape="box"] ;
517 -> 519 ;
520 [label="X[1] <= 0.1250\ngini = 0.865051903114\nsamples = 17", shape="box"] ;
516 -> 520 ;
521 [label="gini = 0.8125\nsamples = 8\nvalue = [ 2.  0.  0.  1.  1.  0.  2.  0.  1.  1.  0.  0.]", shape="box"] ;
520 -> 521 ;
522 [label="gini = 0.8642\nsamples = 9\nvalue = [ 1.  1.  1.  1.  2.  0.  1.  0.  0.  1.  0.  1.]", shape="box"] ;
520 -> 522 ;
523 [label="X[1] <= 0.1750\ngini = 0.873577952251\nsamples = 79", shape="box"] ;
499 -> 523 ;
524 [label="X[1] <= 0.1650\ngini = 0.878684807256\nsamples = 42", shape="box"] ;
523 -> 524 ;
525 [label="X[1] <= 0.1450\ngini = 0.877162629758\nsamples = 34", shape="box"] ;
524 -> 525 ;
526 [label="X[2] <= 2007.5000\ngini = 0.8359375\nsamples = 16", shape="box"] ;
525 -> 526 ;
527 [label="gini = 0.8333\nsamples = 6\nvalue = [ 0.  1.  1.  0.  1.  0.  0.  1.  0.  1.  0.  1.]", shape="box"] ;
526 -> 527 ;
528 [label="gini = 0.7800\nsamples = 10\nvalue = [ 2.  0.  3.  0.  2.  0.  0.  0.  0.  0.  1.  2.]", shape="box"] ;
526 -> 528 ;
529 [label="X[1] <= 0.1550\ngini = 0.864197530864\nsamples = 18", shape="box"] ;
525 -> 529 ;
530 [label="X[2] <= 2007.5000\ngini = 0.826446280992\nsamples = 11", shape="box"] ;
529 -> 530 ;
531 [label="gini = 0.8000\nsamples = 5\nvalue = [ 0.  0.  0.  0.  1.  1.  0.  0.  1.  0.  1.  1.]", shape="box"] ;
530 -> 531 ;
532 [label="gini = 0.7778\nsamples = 6\nvalue = [ 0.  1.  0.  0.  1.  0.  1.  0.  2.  0.  0.  1.]", shape="box"] ;
530 -> 532 ;
533 [label="X[2] <= 2007.5000\ngini = 0.775510204082\nsamples = 7", shape="box"] ;
529 -> 533 ;
534 [label="gini = 0.7200\nsamples = 5\nvalue = [ 1.  0.  0.  0.  1.  0.  2.  0.  0.  0.  0.  1.]", shape="box"] ;
533 -> 534 ;
535 [label="gini = 0.5000\nsamples = 2\nvalue = [ 1.  0.  1.  0.  0.  0.  0.  0.  0.  0.  0.  0.]", shape="box"] ;
533 -> 535 ;
536 [label="X[2] <= 2007.5000\ngini = 0.75\nsamples = 8", shape="box"] ;
524 -> 536 ;
537 [label="gini = 0.7778\nsamples = 6\nvalue = [ 1.  0.  1.  2.  1.  0.  0.  0.  1.  0.  0.  0.]", shape="box"] ;
536 -> 537 ;
538 [label="gini = 0.0000\nsamples = 2\nvalue = [ 0.  0.  2.  0.  0.  0.  0.  0.  0.  0.  0.  0.]", shape="box"] ;
536 -> 538 ;
539 [label="X[1] <= 0.1850\ngini = 0.841490138787\nsamples = 37", shape="box"] ;
523 -> 539 ;
540 [label="X[2] <= 2007.5000\ngini = 0.64\nsamples = 5", shape="box"] ;
539 -> 540 ;
541 [label="gini = 0.6667\nsamples = 3\nvalue = [ 1.  0.  0.  0.  1.  0.  0.  0.  0.  1.  0.  0.]", shape="box"] ;
540 -> 541 ;
542 [label="gini = 0.5000\nsamples = 2\nvalue = [ 1.  0.  0.  0.  1.  0.  0.  0.  0.  0.  0.  0.]", shape="box"] ;
540 -> 542 ;
543 [label="X[2] <= 2007.5000\ngini = 0.841796875\nsamples = 32", shape="box"] ;
539 -> 543 ;
544 [label="X[1] <= 0.2000\ngini = 0.666666666667\nsamples = 6", shape="box"] ;
543 -> 544 ;
545 [label="gini = 0.4444\nsamples = 3\nvalue = [ 0.  0.  0.  2.  1.  0.  0.  0.  0.  0.  0.  0.]", shape="box"] ;
544 -> 545 ;
546 [label="X[1] <= 0.2150\ngini = 0.666666666667\nsamples = 3", shape="box"] ;
544 -> 546 ;
547 [label="gini = 0.5000\nsamples = 2\nvalue = [ 1.  0.  0.  0.  0.  0.  0.  0.  0.  0.  0.  1.]", shape="box"] ;
546 -> 547 ;
548 [label="gini = 0.0000\nsamples = 1\nvalue = [ 0.  0.  0.  1.  0.  0.  0.  0.  0.  0.  0.  0.]", shape="box"] ;
546 -> 548 ;
549 [label="X[1] <= 0.1950\ngini = 0.846153846154\nsamples = 26", shape="box"] ;
543 -> 549 ;
550 [label="gini = 0.7778\nsamples = 6\nvalue = [ 1.  0.  0.  1.  0.  1.  1.  0.  0.  0.  0.  2.]", shape="box"] ;
549 -> 550 ;
551 [label="X[1] <= 0.2150\ngini = 0.81\nsamples = 20", shape="box"] ;
549 -> 551 ;
552 [label="X[1] <= 0.2050\ngini = 0.727272727273\nsamples = 11", shape="box"] ;
551 -> 552 ;
553 [label="gini = 0.6122\nsamples = 7\nvalue = [ 0.  0.  1.  0.  4.  0.  1.  0.  0.  0.  0.  1.]", shape="box"] ;
552 -> 553 ;
554 [label="gini = 0.7500\nsamples = 4\nvalue = [ 1.  0.  1.  0.  1.  0.  0.  1.  0.  0.  0.  0.]", shape="box"] ;
552 -> 554 ;
555 [label="gini = 0.8148\nsamples = 9\nvalue = [ 0.  0.  1.  2.  2.  0.  0.  0.  0.  1.  1.  2.]", shape="box"] ;
551 -> 555 ;
556 [label="X[1] <= 0.2550\ngini = 0.852345679012\nsamples = 45", shape="box"] ;
490 -> 556 ;
557 [label="X[1] <= 0.2450\ngini = 0.747404844291\nsamples = 17", shape="box"] ;
556 -> 557 ;
558 [label="X[1] <= 0.2350\ngini = 0.782222222222\nsamples = 15", shape="box"] ;
557 -> 558 ;
559 [label="X[2] <= 2007.5000\ngini = 0.6875\nsamples = 8", shape="box"] ;
558 -> 559 ;
560 [label="gini = 0.0000\nsamples = 1\nvalue = [ 0.  0.  1.  0.  0.  0.  0.  0.  0.  0.  0.  0.]", shape="box"] ;
559 -> 560 ;
561 [label="gini = 0.6122\nsamples = 7\nvalue = [ 1.  0.  0.  0.  0.  0.  0.  1.  0.  4.  0.  1.]", shape="box"] ;
559 -> 561 ;
562 [label="X[2] <= 2007.5000\ngini = 0.734693877551\nsamples = 7", shape="box"] ;
558 -> 562 ;
563 [label="gini = 0.0000\nsamples = 1\nvalue = [ 0.  0.  0.  0.  0.  0.  0.  0.  0.  0.  0.  1.]", shape="box"] ;
562 -> 563 ;
564 [label="gini = 0.7778\nsamples = 6\nvalue = [ 0.  0.  1.  1.  1.  0.  0.  0.  0.  1.  0.  2.]", shape="box"] ;
562 -> 564 ;
565 [label="gini = 0.0000\nsamples = 2\nvalue = [ 0.  0.  0.  0.  0.  0.  0.  0.  0.  2.  0.  0.]", shape="box"] ;
557 -> 565 ;
566 [label="X[1] <= 0.2850\ngini = 0.854591836735\nsamples = 28", shape="box"] ;
556 -> 566 ;
567 [label="X[1] <= 0.2750\ngini = 0.835538752363\nsamples = 23", shape="box"] ;
566 -> 567 ;
568 [label="X[2] <= 2007.5000\ngini = 0.8125\nsamples = 16", shape="box"] ;
567 -> 568 ;
569 [label="X[1] <= 0.2650\ngini = 0.740740740741\nsamples = 9", shape="box"] ;
568 -> 569 ;
570 [label="gini = 0.6250\nsamples = 4\nvalue = [ 0.  0.  0.  0.  2.  0.  0.  0.  0.  0.  1.  1.]", shape="box"] ;
569 -> 570 ;
571 [label="gini = 0.7200\nsamples = 5\nvalue = [ 1.  0.  0.  0.  2.  0.  1.  0.  0.  1.  0.  0.]", shape="box"] ;
569 -> 571 ;
572 [label="X[1] <= 0.2650\ngini = 0.775510204082\nsamples = 7", shape="box"] ;
568 -> 572 ;
573 [label="gini = 0.4444\nsamples = 3\nvalue = [ 0.  0.  0.  2.  0.  0.  0.  0.  0.  1.  0.  0.]", shape="box"] ;
572 -> 573 ;
574 [label="gini = 0.6250\nsamples = 4\nvalue = [ 0.  0.  0.  0.  1.  0.  1.  0.  0.  0.  0.  2.]", shape="box"] ;
572 -> 574 ;
575 [label="X[2] <= 2007.5000\ngini = 0.775510204082\nsamples = 7", shape="box"] ;
567 -> 575 ;
576 [label="gini = 0.7200\nsamples = 5\nvalue = [ 1.  0.  0.  1.  0.  0.  0.  0.  0.  2.  1.  0.]", shape="box"] ;
575 -> 576 ;
577 [label="gini = 0.5000\nsamples = 2\nvalue = [ 1.  0.  0.  0.  1.  0.  0.  0.  0.  0.  0.  0.]", shape="box"] ;
575 -> 577 ;
578 [label="X[2] <= 2007.5000\ngini = 0.72\nsamples = 5", shape="box"] ;
566 -> 578 ;
579 [label="gini = 0.0000\nsamples = 1\nvalue = [ 0.  0.  0.  0.  0.  0.  1.  0.  0.  0.  0.  0.]", shape="box"] ;
578 -> 579 ;
580 [label="gini = 0.7500\nsamples = 4\nvalue = [ 1.  0.  1.  1.  0.  0.  1.  0.  0.  0.  0.  0.]", shape="box"] ;
578 -> 580 ;
581 [label="X[1] <= 0.1050\ngini = 0.867845993757\nsamples = 155", shape="box"] ;
489 -> 581 ;
582 [label="X[1] <= 0.0850\ngini = 0.854119425548\nsamples = 63", shape="box"] ;
581 -> 582 ;
583 [label="X[1] <= 0.0750\ngini = 0.850340136054\nsamples = 42", shape="box"] ;
582 -> 583 ;
584 [label="X[1] <= 0.0650\ngini = 0.867346938776\nsamples = 28", shape="box"] ;
583 -> 584 ;
585 [label="gini = 0.8457\nsamples = 18\nvalue = [ 3.  0.  1.  0.  4.  1.  3.  0.  1.  3.  2.  0.]", shape="box"] ;
584 -> 585 ;
586 [label="gini = 0.8600\nsamples = 10\nvalue = [ 1.  1.  1.  1.  1.  0.  2.  1.  0.  2.  0.  0.]", shape="box"] ;
584 -> 586 ;
587 [label="gini = 0.7449\nsamples = 14\nvalue = [ 1.  0.  2.  2.  4.  0.  0.  0.  0.  5.  0.  0.]", shape="box"] ;
583 -> 587 ;
588 [label="X[1] <= 0.0950\ngini = 0.829931972789\nsamples = 21", shape="box"] ;
582 -> 588 ;
589 [label="gini = 0.7755\nsamples = 7\nvalue = [ 0.  0.  2.  0.  1.  0.  2.  0.  0.  1.  0.  1.]", shape="box"] ;
588 -> 589 ;
590 [label="gini = 0.8061\nsamples = 14\nvalue = [ 2.  0.  1.  1.  5.  0.  2.  0.  1.  1.  0.  1.]", shape="box"] ;
588 -> 590 ;
591 [label="X[1] <= 0.2650\ngini = 0.862240075614\nsamples = 92", shape="box"] ;
581 -> 591 ;
592 [label="X[1] <= 0.2150\ngini = 0.862560553633\nsamples = 85", shape="box"] ;
591 -> 592 ;
593 [label="X[1] <= 0.2050\ngini = 0.870982552801\nsamples = 66", shape="box"] ;
592 -> 593 ;
594 [label="X[1] <= 0.1150\ngini = 0.86767578125\nsamples = 64", shape="box"] ;
593 -> 594 ;
595 [label="gini = 0.8089\nsamples = 15\nvalue = [ 1.  0.  2.  3.  1.  0.  1.  1.  0.  5.  1.  0.]", shape="box"] ;
594 -> 595 ;
596 [label="X[1] <= 0.1550\ngini = 0.872969596002\nsamples = 49", shape="box"] ;
594 -> 596 ;
597 [label="X[1] <= 0.1450\ngini = 0.855029585799\nsamples = 26", shape="box"] ;
596 -> 597 ;
598 [label="X[1] <= 0.1350\ngini = 0.858725761773\nsamples = 19", shape="box"] ;
597 -> 598 ;
599 [label="X[1] <= 0.1250\ngini = 0.861111111111\nsamples = 12", shape="box"] ;
598 -> 599 ;
600 [label="gini = 0.8395\nsamples = 9\nvalue = [ 2.  0.  1.  1.  0.  0.  1.  1.  0.  2.  0.  1.]", shape="box"] ;
599 -> 600 ;
601 [label="gini = 0.6667\nsamples = 3\nvalue = [ 0.  0.  1.  1.  1.  0.  0.  0.  0.  0.  0.  0.]", shape="box"] ;
599 -> 601 ;
602 [label="gini = 0.8163\nsamples = 7\nvalue = [ 1.  0.  1.  0.  0.  0.  1.  1.  0.  2.  0.  1.]", shape="box"] ;
598 -> 602 ;
603 [label="gini = 0.6939\nsamples = 7\nvalue = [ 0.  0.  0.  0.  0.  0.  3.  2.  0.  1.  0.  1.]", shape="box"] ;
597 -> 603 ;
604 [label="X[1] <= 0.1650\ngini = 0.865784499055\nsamples = 23", shape="box"] ;
596 -> 604 ;
605 [label="gini = 0.6667\nsamples = 3\nvalue = [ 0.  0.  0.  0.  1.  1.  0.  0.  0.  1.  0.  0.]", shape="box"] ;
604 -> 605 ;
606 [label="X[1] <= 0.1800\ngini = 0.86\nsamples = 20", shape="box"] ;
604 -> 606 ;
607 [label="gini = 0.7200\nsamples = 5\nvalue = [ 0.  0.  1.  2.  0.  0.  1.  0.  0.  0.  0.  1.]", shape="box"] ;
606 -> 607 ;
608 [label="X[1] <= 0.1950\ngini = 0.844444444444\nsamples = 15", shape="box"] ;
606 -> 608 ;
609 [label="gini = 0.7778\nsamples = 6\nvalue = [ 2.  0.  1.  0.  0.  0.  0.  0.  1.  1.  0.  1.]", shape="box"] ;
608 -> 609 ;
610 [label="gini = 0.7901\nsamples = 9\nvalue = [ 0.  0.  1.  1.  2.  0.  1.  0.  0.  3.  0.  1.]", shape="box"] ;
608 -> 610 ;
611 [label="gini = 0.5000\nsamples = 2\nvalue = [ 0.  0.  1.  0.  0.  0.  0.  0.  0.  0.  1.  0.]", shape="box"] ;
593 -> 611 ;
612 [label="X[1] <= 0.2450\ngini = 0.792243767313\nsamples = 19", shape="box"] ;
592 -> 612 ;
613 [label="X[1] <= 0.2350\ngini = 0.74\nsamples = 10", shape="box"] ;
612 -> 613 ;
614 [label="X[1] <= 0.2250\ngini = 0.72\nsamples = 5", shape="box"] ;
613 -> 614 ;
615 [label="gini = 0.7500\nsamples = 4\nvalue = [ 0.  0.  0.  1.  0.  0.  1.  0.  0.  1.  0.  1.]", shape="box"] ;
614 -> 615 ;
616 [label="gini = 0.0000\nsamples = 1\nvalue = [ 0.  0.  0.  0.  0.  0.  0.  0.  0.  1.  0.  0.]", shape="box"] ;
614 -> 616 ;
617 [label="gini = 0.5600\nsamples = 5\nvalue = [ 0.  0.  0.  1.  1.  0.  3.  0.  0.  0.  0.  0.]", shape="box"] ;
613 -> 617 ;
618 [label="X[1] <= 0.2550\ngini = 0.79012345679\nsamples = 9", shape="box"] ;
612 -> 618 ;
619 [label="gini = 0.6250\nsamples = 4\nvalue = [ 0.  0.  0.  1.  1.  0.  0.  0.  0.  2.  0.  0.]", shape="box"] ;
618 -> 619 ;
620 [label="gini = 0.8000\nsamples = 5\nvalue = [ 0.  0.  1.  1.  0.  0.  1.  0.  0.  1.  0.  1.]", shape="box"] ;
618 -> 620 ;
621 [label="X[1] <= 0.2750\ngini = 0.734693877551\nsamples = 7", shape="box"] ;
591 -> 621 ;
622 [label="gini = 0.6250\nsamples = 4\nvalue = [ 0.  0.  0.  0.  2.  0.  0.  0.  0.  1.  0.  1.]", shape="box"] ;
621 -> 622 ;
623 [label="X[1] <= 0.2850\ngini = 0.666666666667\nsamples = 3", shape="box"] ;
621 -> 623 ;
624 [label="gini = 0.0000\nsamples = 1\nvalue = [ 0.  0.  1.  0.  0.  0.  0.  0.  0.  0.  0.  0.]", shape="box"] ;
623 -> 624 ;
625 [label="gini = 0.5000\nsamples = 2\nvalue = [ 0.  0.  0.  0.  0.  0.  0.  0.  0.  1.  0.  1.]", shape="box"] ;
623 -> 625 ;
626 [label="X[1] <= 0.0650\ngini = 0.849963631555\nsamples = 213", shape="box"] ;
454 -> 626 ;
627 [label="X[1] <= 0.0150\ngini = 0.850380388842\nsamples = 91", shape="box"] ;
626 -> 627 ;
628 [label="gini = 0.7812\nsamples = 8\nvalue = [ 0.  0.  1.  0.  1.  0.  1.  1.  0.  3.  1.  0.]", shape="box"] ;
627 -> 628 ;
629 [label="X[1] <= 0.0450\ngini = 0.849470169836\nsamples = 83", shape="box"] ;
627 -> 629 ;
630 [label="X[1] <= 0.0350\ngini = 0.833545918367\nsamples = 56", shape="box"] ;
629 -> 630 ;
631 [label="X[1] <= 0.0250\ngini = 0.834027364664\nsamples = 41", shape="box"] ;
630 -> 631 ;
632 [label="gini = 0.8438\nsamples = 24\nvalue = [ 1.  1.  2.  5.  6.  0.  2.  1.  0.  4.  1.  1.]", shape="box"] ;
631 -> 632 ;
633 [label="gini = 0.7958\nsamples = 17\nvalue = [ 2.  0.  1.  3.  4.  0.  0.  0.  0.  5.  0.  2.]", shape="box"] ;
631 -> 633 ;
634 [label="gini = 0.8000\nsamples = 15\nvalue = [ 0.  0.  1.  1.  5.  0.  2.  0.  0.  3.  1.  2.]", shape="box"] ;
630 -> 634 ;
635 [label="X[1] <= 0.0550\ngini = 0.861454046639\nsamples = 27", shape="box"] ;
629 -> 635 ;
636 [label="gini = 0.8367\nsamples = 14\nvalue = [ 2.  0.  1.  1.  1.  2.  0.  2.  0.  4.  0.  1.]", shape="box"] ;
635 -> 636 ;
637 [label="gini = 0.8284\nsamples = 13\nvalue = [ 0.  0.  2.  2.  3.  0.  1.  0.  0.  3.  1.  1.]", shape="box"] ;
635 -> 637 ;
638 [label="X[1] <= 0.1750\ngini = 0.828540714862\nsamples = 122", shape="box"] ;
626 -> 638 ;
639 [label="X[1] <= 0.1050\ngini = 0.824643353112\nsamples = 89", shape="box"] ;
638 -> 639 ;
640 [label="X[1] <= 0.0750\ngini = 0.765495867769\nsamples = 44", shape="box"] ;
639 -> 640 ;
641 [label="gini = 0.6864\nsamples = 13\nvalue = [ 0.  0.  2.  3.  6.  0.  2.  0.  0.  0.  0.  0.]", shape="box"] ;
640 -> 641 ;
642 [label="X[1] <= 0.0850\ngini = 0.782518210198\nsamples = 31", shape="box"] ;
640 -> 642 ;
643 [label="gini = 0.8089\nsamples = 15\nvalue = [ 4.  0.  2.  2.  4.  0.  1.  0.  0.  1.  0.  1.]", shape="box"] ;
642 -> 643 ;
644 [label="X[1] <= 0.0950\ngini = 0.703125\nsamples = 16", shape="box"] ;
642 -> 644 ;
645 [label="gini = 0.6122\nsamples = 7\nvalue = [ 0.  1.  0.  1.  4.  0.  1.  0.  0.  0.  0.  0.]", shape="box"] ;
644 -> 645 ;
646 [label="gini = 0.7407\nsamples = 9\nvalue = [ 1.  0.  1.  1.  4.  0.  1.  0.  0.  0.  0.  1.]", shape="box"] ;
644 -> 646 ;
647 [label="X[1] <= 0.1250\ngini = 0.846419753086\nsamples = 45", shape="box"] ;
639 -> 647 ;
648 [label="X[1] <= 0.1150\ngini = 0.828402366864\nsamples = 13", shape="box"] ;
647 -> 648 ;
649 [label="gini = 0.6250\nsamples = 4\nvalue = [ 0.  0.  2.  0.  1.  0.  0.  0.  0.  1.  0.  0.]", shape="box"] ;
648 -> 649 ;
650 [label="gini = 0.7901\nsamples = 9\nvalue = [ 0.  0.  1.  0.  1.  0.  3.  0.  1.  0.  1.  2.]", shape="box"] ;
648 -> 650 ;
651 [label="X[1] <= 0.1350\ngini = 0.826171875\nsamples = 32", shape="box"] ;
647 -> 651 ;
652 [label="gini = 0.7347\nsamples = 7\nvalue = [ 3.  0.  1.  0.  1.  0.  0.  0.  0.  1.  0.  1.]", shape="box"] ;
651 -> 652 ;
653 [label="X[1] <= 0.1450\ngini = 0.8192\nsamples = 25", shape="box"] ;
651 -> 653 ;
654 [label="gini = 0.8571\nsamples = 7\nvalue = [ 1.  0.  1.  1.  1.  0.  1.  0.  0.  1.  1.  0.]", shape="box"] ;
653 -> 654 ;
655 [label="X[1] <= 0.1550\ngini = 0.777777777778\nsamples = 18", shape="box"] ;
653 -> 655 ;
656 [label="gini = 0.6939\nsamples = 7\nvalue = [ 1.  0.  2.  0.  3.  0.  1.  0.  0.  0.  0.  0.]", shape="box"] ;
655 -> 656 ;
657 [label="X[1] <= 0.1650\ngini = 0.793388429752\nsamples = 11", shape="box"] ;
655 -> 657 ;
658 [label="gini = 0.7755\nsamples = 7\nvalue = [ 0.  0.  2.  1.  1.  0.  0.  0.  0.  2.  0.  1.]", shape="box"] ;
657 -> 658 ;
659 [label="gini = 0.6250\nsamples = 4\nvalue = [ 1.  0.  1.  0.  2.  0.  0.  0.  0.  0.  0.  0.]", shape="box"] ;
657 -> 659 ;
660 [label="X[1] <= 0.2550\ngini = 0.800734618916\nsamples = 33", shape="box"] ;
638 -> 660 ;
661 [label="X[1] <= 0.2450\ngini = 0.784722222222\nsamples = 24", shape="box"] ;
660 -> 661 ;
662 [label="X[1] <= 0.2350\ngini = 0.771266540643\nsamples = 23", shape="box"] ;
661 -> 662 ;
663 [label="X[1] <= 0.2250\ngini = 0.75\nsamples = 20", shape="box"] ;
662 -> 663 ;
664 [label="X[1] <= 0.2050\ngini = 0.768166089965\nsamples = 17", shape="box"] ;
663 -> 664 ;
665 [label="X[1] <= 0.1950\ngini = 0.704081632653\nsamples = 14", shape="box"] ;
664 -> 665 ;
666 [label="X[1] <= 0.1850\ngini = 0.721893491124\nsamples = 13", shape="box"] ;
665 -> 666 ;
667 [label="gini = 0.6400\nsamples = 5\nvalue = [ 0.  0.  1.  2.  2.  0.  0.  0.  0.  0.  0.  0.]", shape="box"] ;
666 -> 667 ;
668 [label="gini = 0.7500\nsamples = 8\nvalue = [ 0.  0.  1.  3.  2.  0.  1.  0.  0.  1.  0.  0.]", shape="box"] ;
666 -> 668 ;
669 [label="gini = 0.0000\nsamples = 1\nvalue = [ 0.  0.  0.  1.  0.  0.  0.  0.  0.  0.  0.  0.]", shape="box"] ;
665 -> 669 ;
670 [label="X[1] <= 0.2150\ngini = 0.666666666667\nsamples = 3", shape="box"] ;
664 -> 670 ;
671 [label="gini = 0.0000\nsamples = 1\nvalue = [ 0.  0.  0.  0.  0.  0.  0.  0.  0.  0.  0.  1.]", shape="box"] ;
670 -> 671 ;
672 [label="gini = 0.5000\nsamples = 2\nvalue = [ 0.  0.  1.  0.  0.  0.  1.  0.  0.  0.  0.  0.]", shape="box"] ;
670 -> 672 ;
673 [label="gini = 0.4444\nsamples = 3\nvalue = [ 0.  0.  0.  1.  2.  0.  0.  0.  0.  0.  0.  0.]", shape="box"] ;
663 -> 673 ;
674 [label="gini = 0.6667\nsamples = 3\nvalue = [ 0.  0.  0.  1.  0.  0.  1.  0.  1.  0.  0.  0.]", shape="box"] ;
662 -> 674 ;
675 [label="gini = 0.0000\nsamples = 1\nvalue = [ 0.  0.  0.  0.  0.  0.  0.  0.  0.  0.  0.  1.]", shape="box"] ;
661 -> 675 ;
676 [label="X[1] <= 0.2750\ngini = 0.740740740741\nsamples = 9", shape="box"] ;
660 -> 676 ;
677 [label="X[1] <= 0.2650\ngini = 0.666666666667\nsamples = 3", shape="box"] ;
676 -> 677 ;
678 [label="gini = 0.0000\nsamples = 1\nvalue = [ 0.  0.  0.  0.  1.  0.  0.  0.  0.  0.  0.  0.]", shape="box"] ;
677 -> 678 ;
679 [label="gini = 0.5000\nsamples = 2\nvalue = [ 0.  0.  0.  0.  0.  0.  0.  0.  0.  1.  1.  0.]", shape="box"] ;
677 -> 679 ;
680 [label="X[1] <= 0.2850\ngini = 0.666666666667\nsamples = 6", shape="box"] ;
676 -> 680 ;
681 [label="gini = 0.6250\nsamples = 4\nvalue = [ 0.  0.  0.  1.  2.  0.  0.  1.  0.  0.  0.  0.]", shape="box"] ;
680 -> 681 ;
682 [label="gini = 0.5000\nsamples = 2\nvalue = [ 0.  0.  0.  0.  1.  0.  1.  0.  0.  0.  0.  0.]", shape="box"] ;
680 -> 682 ;
683 [label="X[1] <= 0.1250\ngini = 0.859739368999\nsamples = 108", shape="box"] ;
453 -> 683 ;
684 [label="X[1] <= 0.0750\ngini = 0.863964108316\nsamples = 79", shape="box"] ;
683 -> 684 ;
685 [label="X[1] <= 0.0550\ngini = 0.838010204082\nsamples = 56", shape="box"] ;
684 -> 685 ;
686 [label="X[1] <= 0.0350\ngini = 0.827755102041\nsamples = 35", shape="box"] ;
685 -> 686 ;
687 [label="X[1] <= 0.0150\ngini = 0.847107438017\nsamples = 22", shape="box"] ;
686 -> 687 ;
688 [label="gini = 0.6250\nsamples = 4\nvalue = [ 0.  0.  0.  0.  1.  0.  1.  0.  0.  0.  0.  2.]", shape="box"] ;
687 -> 688 ;
689 [label="X[1] <= 0.0250\ngini = 0.845679012346\nsamples = 18", shape="box"] ;
687 -> 689 ;
690 [label="gini = 0.8264\nsamples = 11\nvalue = [ 0.  1.  1.  3.  2.  0.  2.  0.  1.  1.  0.  0.]", shape="box"] ;
689 -> 690 ;
691 [label="gini = 0.8163\nsamples = 7\nvalue = [ 0.  0.  1.  1.  1.  0.  2.  0.  0.  0.  1.  1.]", shape="box"] ;
689 -> 691 ;
692 [label="X[1] <= 0.0450\ngini = 0.721893491124\nsamples = 13", shape="box"] ;
686 -> 692 ;
693 [label="gini = 0.6667\nsamples = 6\nvalue = [ 0.  0.  1.  1.  0.  0.  3.  0.  1.  0.  0.  0.]", shape="box"] ;
692 -> 693 ;
694 [label="gini = 0.6939\nsamples = 7\nvalue = [ 1.  0.  1.  0.  0.  0.  3.  0.  0.  0.  0.  2.]", shape="box"] ;
692 -> 694 ;
695 [label="X[1] <= 0.0650\ngini = 0.807256235828\nsamples = 21", shape="box"] ;
685 -> 695 ;
696 [label="gini = 0.8099\nsamples = 11\nvalue = [ 0.  2.  1.  1.  2.  0.  2.  0.  0.  3.  0.  0.]", shape="box"] ;
695 -> 696 ;
697 [label="gini = 0.7200\nsamples = 10\nvalue = [ 1.  1.  1.  0.  3.  0.  4.  0.  0.  0.  0.  0.]", shape="box"] ;
695 -> 697 ;
698 [label="X[1] <= 0.1050\ngini = 0.850661625709\nsamples = 23", shape="box"] ;
684 -> 698 ;
699 [label="X[1] <= 0.0950\ngini = 0.84693877551\nsamples = 14", shape="box"] ;
698 -> 699 ;
700 [label="X[1] <= 0.0850\ngini = 0.775510204082\nsamples = 7", shape="box"] ;
699 -> 700 ;
701 [label="gini = 0.6667\nsamples = 3\nvalue = [ 0.  0.  1.  1.  0.  0.  0.  0.  0.  1.  0.  0.]", shape="box"] ;
700 -> 701 ;
702 [label="gini = 0.7500\nsamples = 4\nvalue = [ 0.  0.  1.  1.  0.  1.  1.  0.  0.  0.  0.  0.]", shape="box"] ;
700 -> 702 ;
703 [label="gini = 0.7755\nsamples = 7\nvalue = [ 2.  1.  0.  2.  0.  0.  0.  0.  0.  0.  1.  1.]", shape="box"] ;
699 -> 703 ;
704 [label="X[1] <= 0.1150\ngini = 0.716049382716\nsamples = 9", shape="box"] ;
698 -> 704 ;
705 [label="gini = 0.7200\nsamples = 5\nvalue = [ 0.  1.  2.  0.  1.  0.  1.  0.  0.  0.  0.  0.]", shape="box"] ;
704 -> 705 ;
706 [label="gini = 0.6250\nsamples = 4\nvalue = [ 1.  1.  2.  0.  0.  0.  0.  0.  0.  0.  0.  0.]", shape="box"] ;
704 -> 706 ;
707 [label="X[1] <= 0.1700\ngini = 0.739595719382\nsamples = 29", shape="box"] ;
683 -> 707 ;
708 [label="X[1] <= 0.1450\ngini = 0.556213017751\nsamples = 13", shape="box"] ;
707 -> 708 ;
709 [label="X[1] <= 0.1350\ngini = 0.666666666667\nsamples = 9", shape="box"] ;
708 -> 709 ;
710 [label="gini = 0.6111\nsamples = 6\nvalue = [ 0.  0.  2.  0.  3.  0.  0.  1.  0.  0.  0.  0.]", shape="box"] ;
709 -> 710 ;
711 [label="gini = 0.6667\nsamples = 3\nvalue = [ 0.  0.  1.  0.  1.  0.  1.  0.  0.  0.  0.  0.]", shape="box"] ;
709 -> 711 ;
712 [label="gini = 0.0000\nsamples = 4\nvalue = [ 0.  0.  0.  0.  4.  0.  0.  0.  0.  0.  0.  0.]", shape="box"] ;
708 -> 712 ;
713 [label="X[1] <= 0.2650\ngini = 0.7890625\nsamples = 16", shape="box"] ;
707 -> 713 ;
714 [label="X[1] <= 0.2050\ngini = 0.743801652893\nsamples = 11", shape="box"] ;
713 -> 714 ;
715 [label="X[1] <= 0.1900\ngini = 0.375\nsamples = 4", shape="box"] ;
714 -> 715 ;
716 [label="gini = 0.5000\nsamples = 2\nvalue = [ 0.  0.  1.  0.  0.  0.  0.  0.  0.  1.  0.  0.]", shape="box"] ;
715 -> 716 ;
717 [label="gini = 0.0000\nsamples = 2\nvalue = [ 0.  0.  0.  0.  0.  0.  0.  0.  0.  2.  0.  0.]", shape="box"] ;
715 -> 717 ;
718 [label="X[1] <= 0.2200\ngini = 0.69387755102\nsamples = 7", shape="box"] ;
714 -> 718 ;
719 [label="gini = 0.5000\nsamples = 2\nvalue = [ 0.  0.  0.  0.  0.  0.  1.  0.  0.  0.  1.  0.]", shape="box"] ;
718 -> 719 ;
720 [label="X[1] <= 0.2500\ngini = 0.48\nsamples = 5", shape="box"] ;
718 -> 720 ;
721 [label="X[1] <= 0.2350\ngini = 0.375\nsamples = 4", shape="box"] ;
720 -> 721 ;
722 [label="gini = 0.5000\nsamples = 2\nvalue = [ 0.  0.  1.  1.  0.  0.  0.  0.  0.  0.  0.  0.]", shape="box"] ;
721 -> 722 ;
723 [label="gini = 0.0000\nsamples = 2\nvalue = [ 0.  0.  2.  0.  0.  0.  0.  0.  0.  0.  0.  0.]", shape="box"] ;
721 -> 723 ;
724 [label="gini = 0.0000\nsamples = 1\nvalue = [ 0.  0.  0.  1.  0.  0.  0.  0.  0.  0.  0.  0.]", shape="box"] ;
720 -> 724 ;
725 [label="X[1] <= 0.2850\ngini = 0.32\nsamples = 5", shape="box"] ;
713 -> 725 ;
726 [label="gini = 0.0000\nsamples = 3\nvalue = [ 0.  0.  0.  0.  3.  0.  0.  0.  0.  0.  0.  0.]", shape="box"] ;
725 -> 726 ;
727 [label="gini = 0.5000\nsamples = 2\nvalue = [ 0.  0.  0.  0.  1.  0.  0.  0.  0.  1.  0.  0.]", shape="box"] ;
725 -> 727 ;
728 [label="X[2] <= 2008.5000\ngini = 0.874362420286\nsamples = 439", shape="box"] ;
286 -> 728 ;
729 [label="X[1] <= 0.5050\ngini = 0.872437799079\nsamples = 259", shape="box"] ;
728 -> 729 ;
730 [label="X[2] <= 2007.5000\ngini = 0.886236098357\nsamples = 99", shape="box"] ;
729 -> 730 ;
731 [label="X[2] <= 2006.5000\ngini = 0.871111111111\nsamples = 60", shape="box"] ;
730 -> 731 ;
732 [label="X[2] <= 2005.5000\ngini = 0.829081632653\nsamples = 28", shape="box"] ;
731 -> 732 ;
733 [label="X[1] <= 0.3050\ngini = 0.775510204082\nsamples = 14", shape="box"] ;
732 -> 733 ;
734 [label="gini = 0.5000\nsamples = 2\nvalue = [ 0.  0.  0.  1.  0.  0.  0.  0.  0.  1.  0.  0.]", shape="box"] ;
733 -> 734 ;
735 [label="X[1] <= 0.4900\ngini = 0.75\nsamples = 12", shape="box"] ;
733 -> 735 ;
736 [label="X[1] <= 0.3600\ngini = 0.72\nsamples = 10", shape="box"] ;
735 -> 736 ;
737 [label="X[1] <= 0.3300\ngini = 0.444444444444\nsamples = 3", shape="box"] ;
736 -> 737 ;
738 [label="gini = 0.5000\nsamples = 2\nvalue = [ 0.  1.  1.  0.  0.  0.  0.  0.  0.  0.  0.  0.]", shape="box"] ;
737 -> 738 ;
739 [label="gini = 0.0000\nsamples = 1\nvalue = [ 0.  0.  1.  0.  0.  0.  0.  0.  0.  0.  0.  0.]", shape="box"] ;
737 -> 739 ;
740 [label="X[1] <= 0.3800\ngini = 0.69387755102\nsamples = 7", shape="box"] ;
736 -> 740 ;
741 [label="gini = 0.0000\nsamples = 1\nvalue = [ 0.  0.  0.  0.  0.  0.  0.  0.  0.  1.  0.  0.]", shape="box"] ;
740 -> 741 ;
742 [label="X[1] <= 0.4200\ngini = 0.722222222222\nsamples = 6", shape="box"] ;
740 -> 742 ;
743 [label="X[1] <= 0.3950\ngini = 0.5\nsamples = 2", shape="box"] ;
742 -> 743 ;
744 [label="gini = 0.0000\nsamples = 1\nvalue = [ 0.  1.  0.  0.  0.  0.  0.  0.  0.  0.  0.  0.]", shape="box"] ;
743 -> 744 ;
745 [label="gini = 0.0000\nsamples = 1\nvalue = [ 0.  0.  0.  0.  0.  0.  0.  0.  0.  0.  1.  0.]", shape="box"] ;
743 -> 745 ;
746 [label="X[2] <= 2004.5000\ngini = 0.625\nsamples = 4", shape="box"] ;
742 -> 746 ;
747 [label="gini = 0.0000\nsamples = 1\nvalue = [ 0.  0.  0.  0.  0.  0.  0.  0.  0.  1.  0.  0.]", shape="box"] ;
746 -> 747 ;
748 [label="X[1] <= 0.4600\ngini = 0.666666666667\nsamples = 3", shape="box"] ;
746 -> 748 ;
749 [label="gini = 0.0000\nsamples = 1\nvalue = [ 0.  0.  1.  0.  0.  0.  0.  0.  0.  0.  0.  0.]", shape="box"] ;
748 -> 749 ;
750 [label="X[1] <= 0.4750\ngini = 0.5\nsamples = 2", shape="box"] ;
748 -> 750 ;
751 [label="gini = 0.0000\nsamples = 1\nvalue = [ 0.  1.  0.  0.  0.  0.  0.  0.  0.  0.  0.  0.]", shape="box"] ;
750 -> 751 ;
752 [label="gini = 0.0000\nsamples = 1\nvalue = [ 0.  0.  0.  0.  0.  0.  0.  0.  0.  1.  0.  0.]", shape="box"] ;
750 -> 752 ;
753 [label="X[2] <= 2004.5000\ngini = 0.5\nsamples = 2", shape="box"] ;
735 -> 753 ;
754 [label="gini = 0.0000\nsamples = 1\nvalue = [ 0.  0.  1.  0.  0.  0.  0.  0.  0.  0.  0.  0.]", shape="box"] ;
753 -> 754 ;
755 [label="gini = 0.0000\nsamples = 1\nvalue = [ 0.  0.  0.  0.  0.  1.  0.  0.  0.  0.  0.  0.]", shape="box"] ;
753 -> 755 ;
756 [label="X[1] <= 0.4750\ngini = 0.816326530612\nsamples = 14", shape="box"] ;
732 -> 756 ;
757 [label="X[1] <= 0.4650\ngini = 0.805555555556\nsamples = 12", shape="box"] ;
756 -> 757 ;
758 [label="X[1] <= 0.4450\ngini = 0.809917355372\nsamples = 11", shape="box"] ;
757 -> 758 ;
759 [label="X[1] <= 0.4250\ngini = 0.8\nsamples = 10", shape="box"] ;
758 -> 759 ;
760 [label="X[1] <= 0.4000\ngini = 0.814814814815\nsamples = 9", shape="box"] ;
759 -> 760 ;
761 [label="X[1] <= 0.3050\ngini = 0.8125\nsamples = 8", shape="box"] ;
760 -> 761 ;
762 [label="gini = 0.6667\nsamples = 3\nvalue = [ 0.  1.  1.  0.  1.  0.  0.  0.  0.  0.  0.  0.]", shape="box"] ;
761 -> 762 ;
763 [label="X[1] <= 0.3250\ngini = 0.8\nsamples = 5", shape="box"] ;
761 -> 763 ;
764 [label="gini = 0.5000\nsamples = 2\nvalue = [ 0.  0.  0.  0.  0.  1.  1.  0.  0.  0.  0.  0.]", shape="box"] ;
763 -> 764 ;
765 [label="X[1] <= 0.3600\ngini = 0.666666666667\nsamples = 3", shape="box"] ;
763 -> 765 ;
766 [label="gini = 0.0000\nsamples = 1\nvalue = [ 0.  0.  0.  1.  0.  0.  0.  0.  0.  0.  0.  0.]", shape="box"] ;
765 -> 766 ;
767 [label="gini = 0.5000\nsamples = 2\nvalue = [ 0.  1.  0.  0.  1.  0.  0.  0.  0.  0.  0.  0.]", shape="box"] ;
765 -> 767 ;
768 [label="gini = 0.0000\nsamples = 1\nvalue = [ 0.  0.  1.  0.  0.  0.  0.  0.  0.  0.  0.  0.]", shape="box"] ;
760 -> 768 ;
769 [label="gini = 0.0000\nsamples = 1\nvalue = [ 0.  1.  0.  0.  0.  0.  0.  0.  0.  0.  0.  0.]", shape="box"] ;
759 -> 769 ;
770 [label="gini = 0.0000\nsamples = 1\nvalue = [ 0.  0.  0.  0.  0.  1.  0.  0.  0.  0.  0.  0.]", shape="box"] ;
758 -> 770 ;
771 [label="gini = 0.0000\nsamples = 1\nvalue = [ 0.  0.  1.  0.  0.  0.  0.  0.  0.  0.  0.  0.]", shape="box"] ;
757 -> 771 ;
772 [label="X[1] <= 0.4850\ngini = 0.5\nsamples = 2", shape="box"] ;
756 -> 772 ;
773 [label="gini = 0.0000\nsamples = 1\nvalue = [ 0.  0.  0.  0.  0.  0.  0.  0.  0.  0.  0.  1.]", shape="box"] ;
772 -> 773 ;
774 [label="gini = 0.0000\nsamples = 1\nvalue = [ 0.  1.  0.  0.  0.  0.  0.  0.  0.  0.  0.  0.]", shape="box"] ;
772 -> 774 ;
775 [label="X[1] <= 0.4450\ngini = 0.869140625\nsamples = 32", shape="box"] ;
731 -> 775 ;
776 [label="X[1] <= 0.3750\ngini = 0.885416666667\nsamples = 24", shape="box"] ;
775 -> 776 ;
777 [label="X[1] <= 0.3450\ngini = 0.871972318339\nsamples = 17", shape="box"] ;
776 -> 777 ;
778 [label="X[1] <= 0.3200\ngini = 0.826446280992\nsamples = 11", shape="box"] ;
777 -> 778 ;
779 [label="X[1] <= 0.3050\ngini = 0.777777777778\nsamples = 6", shape="box"] ;
778 -> 779 ;
780 [label="gini = 0.6667\nsamples = 3\nvalue = [ 0.  0.  1.  0.  0.  0.  0.  0.  0.  1.  1.  0.]", shape="box"] ;
779 -> 780 ;
781 [label="gini = 0.6667\nsamples = 3\nvalue = [ 0.  0.  1.  1.  0.  0.  0.  0.  1.  0.  0.  0.]", shape="box"] ;
779 -> 781 ;
782 [label="X[1] <= 0.3350\ngini = 0.64\nsamples = 5", shape="box"] ;
778 -> 782 ;
783 [label="gini = 0.5000\nsamples = 2\nvalue = [ 0.  0.  0.  0.  0.  0.  1.  0.  0.  0.  0.  1.]", shape="box"] ;
782 -> 783 ;
784 [label="gini = 0.6667\nsamples = 3\nvalue = [ 0.  0.  1.  0.  0.  0.  1.  0.  0.  0.  0.  1.]", shape="box"] ;
782 -> 784 ;
785 [label="X[1] <= 0.3550\ngini = 0.777777777778\nsamples = 6", shape="box"] ;
777 -> 785 ;
786 [label="gini = 0.5000\nsamples = 2\nvalue = [ 0.  1.  1.  0.  0.  0.  0.  0.  0.  0.  0.  0.]", shape="box"] ;
785 -> 786 ;
787 [label="X[1] <= 0.3650\ngini = 0.75\nsamples = 4", shape="box"] ;
785 -> 787 ;
788 [label="gini = 0.6667\nsamples = 3\nvalue = [ 1.  0.  0.  0.  0.  0.  0.  1.  0.  0.  1.  0.]", shape="box"] ;
787 -> 788 ;
789 [label="gini = 0.0000\nsamples = 1\nvalue = [ 0.  1.  0.  0.  0.  0.  0.  0.  0.  0.  0.  0.]", shape="box"] ;
787 -> 789 ;
790 [label="X[1] <= 0.4200\ngini = 0.69387755102\nsamples = 7", shape="box"] ;
776 -> 790 ;
791 [label="X[1] <= 0.3900\ngini = 0.75\nsamples = 4", shape="box"] ;
790 -> 791 ;
792 [label="gini = 0.5000\nsamples = 2\nvalue = [ 0.  0.  0.  0.  1.  0.  0.  0.  0.  1.  0.  0.]", shape="box"] ;
791 -> 792 ;
793 [label="gini = 0.5000\nsamples = 2\nvalue = [ 0.  0.  0.  0.  0.  0.  1.  0.  0.  0.  0.  1.]", shape="box"] ;
791 -> 793 ;
794 [label="gini = 0.4444\nsamples = 3\nvalue = [ 0.  0.  0.  0.  1.  0.  0.  0.  0.  2.  0.  0.]", shape="box"] ;
790 -> 794 ;
795 [label="X[1] <= 0.4850\ngini = 0.6875\nsamples = 8", shape="box"] ;
775 -> 795 ;
796 [label="X[1] <= 0.4750\ngini = 0.69387755102\nsamples = 7", shape="box"] ;
795 -> 796 ;
797 [label="X[1] <= 0.4600\ngini = 0.722222222222\nsamples = 6", shape="box"] ;
796 -> 797 ;
798 [label="gini = 0.6667\nsamples = 3\nvalue = [ 0.  0.  1.  0.  1.  0.  1.  0.  0.  0.  0.  0.]", shape="box"] ;
797 -> 798 ;
799 [label="gini = 0.6667\nsamples = 3\nvalue = [ 1.  0.  1.  0.  0.  0.  1.  0.  0.  0.  0.  0.]", shape="box"] ;
797 -> 799 ;
800 [label="gini = 0.0000\nsamples = 1\nvalue = [ 0.  0.  0.  0.  0.  0.  1.  0.  0.  0.  0.  0.]", shape="box"] ;
796 -> 800 ;
801 [label="gini = 0.0000\nsamples = 1\nvalue = [ 0.  0.  1.  0.  0.  0.  0.  0.  0.  0.  0.  0.]", shape="box"] ;
795 -> 801 ;
802 [label="X[1] <= 0.3100\ngini = 0.862590401052\nsamples = 39", shape="box"] ;
730 -> 802 ;
803 [label="gini = 0.5000\nsamples = 2\nvalue = [ 0.  0.  0.  0.  0.  0.  0.  0.  0.  0.  1.  1.]", shape="box"] ;
802 -> 803 ;
804 [label="X[1] <= 0.4000\ngini = 0.851716581446\nsamples = 37", shape="box"] ;
802 -> 804 ;
805 [label="X[1] <= 0.3350\ngini = 0.822314049587\nsamples = 22", shape="box"] ;
804 -> 805 ;
806 [label="X[1] <= 0.3250\ngini = 0.722222222222\nsamples = 6", shape="box"] ;
805 -> 806 ;
807 [label="gini = 0.6250\nsamples = 4\nvalue = [ 1.  0.  1.  0.  2.  0.  0.  0.  0.  0.  0.  0.]", shape="box"] ;
806 -> 807 ;
808 [label="gini = 0.5000\nsamples = 2\nvalue = [ 1.  0.  0.  1.  0.  0.  0.  0.  0.  0.  0.  0.]", shape="box"] ;
806 -> 808 ;
809 [label="X[1] <= 0.3850\ngini = 0.796875\nsamples = 16", shape="box"] ;
805 -> 809 ;
810 [label="X[1] <= 0.3550\ngini = 0.75\nsamples = 12", shape="box"] ;
809 -> 810 ;
811 [label="X[1] <= 0.3450\ngini = 0.5\nsamples = 4", shape="box"] ;
810 -> 811 ;
812 [label="gini = 0.4444\nsamples = 3\nvalue = [ 0.  0.  0.  0.  1.  0.  0.  0.  0.  2.  0.  0.]", shape="box"] ;
811 -> 812 ;
813 [label="gini = 0.0000\nsamples = 1\nvalue = [ 0.  0.  0.  0.  1.  0.  0.  0.  0.  0.  0.  0.]", shape="box"] ;
811 -> 813 ;
814 [label="X[1] <= 0.3650\ngini = 0.75\nsamples = 8", shape="box"] ;
810 -> 814 ;
815 [label="gini = 0.5000\nsamples = 2\nvalue = [ 0.  0.  0.  1.  0.  0.  0.  1.  0.  0.  0.  0.]", shape="box"] ;
814 -> 815 ;
816 [label="X[1] <= 0.3750\ngini = 0.666666666667\nsamples = 6", shape="box"] ;
814 -> 816 ;
817 [label="gini = 0.6250\nsamples = 4\nvalue = [ 0.  0.  0.  1.  0.  1.  0.  0.  0.  2.  0.  0.]", shape="box"] ;
816 -> 817 ;
818 [label="gini = 0.5000\nsamples = 2\nvalue = [ 0.  0.  0.  0.  0.  0.  0.  0.  0.  1.  0.  1.]", shape="box"] ;
816 -> 818 ;
819 [label="gini = 0.6250\nsamples = 4\nvalue = [ 1.  0.  0.  0.  2.  0.  0.  1.  0.  0.  0.  0.]", shape="box"] ;
809 -> 819 ;
820 [label="X[1] <= 0.4650\ngini = 0.826666666667\nsamples = 15", shape="box"] ;
804 -> 820 ;
821 [label="X[1] <= 0.4400\ngini = 0.716049382716\nsamples = 9", shape="box"] ;
820 -> 821 ;
822 [label="X[1] <= 0.4150\ngini = 0.5\nsamples = 4", shape="box"] ;
821 -> 822 ;
823 [label="gini = 0.0000\nsamples = 1\nvalue = [ 0.  1.  0.  0.  0.  0.  0.  0.  0.  0.  0.  0.]", shape="box"] ;
822 -> 823 ;
824 [label="X[1] <= 0.4250\ngini = 0.444444444444\nsamples = 3", shape="box"] ;
822 -> 824 ;
825 [label="gini = 0.5000\nsamples = 2\nvalue = [ 0.  1.  0.  0.  0.  0.  0.  0.  0.  1.  0.  0.]", shape="box"] ;
824 -> 825 ;
826 [label="gini = 0.0000\nsamples = 1\nvalue = [ 0.  0.  0.  0.  0.  0.  0.  0.  0.  1.  0.  0.]", shape="box"] ;
824 -> 826 ;
827 [label="X[1] <= 0.4550\ngini = 0.72\nsamples = 5", shape="box"] ;
821 -> 827 ;
828 [label="gini = 0.0000\nsamples = 1\nvalue = [ 0.  0.  0.  0.  1.  0.  0.  0.  0.  0.  0.  0.]", shape="box"] ;
827 -> 828 ;
829 [label="gini = 0.6250\nsamples = 4\nvalue = [ 0.  2.  0.  1.  0.  0.  0.  0.  0.  0.  1.  0.]", shape="box"] ;
827 -> 829 ;
830 [label="X[1] <= 0.4850\ngini = 0.722222222222\nsamples = 6", shape="box"] ;
820 -> 830 ;
831 [label="gini = 0.0000\nsamples = 2\nvalue = [ 0.  0.  2.  0.  0.  0.  0.  0.  0.  0.  0.  0.]", shape="box"] ;
830 -> 831 ;
832 [label="X[1] <= 0.4950\ngini = 0.625\nsamples = 4", shape="box"] ;
830 -> 832 ;
833 [label="gini = 0.6667\nsamples = 3\nvalue = [ 1.  0.  0.  1.  1.  0.  0.  0.  0.  0.  0.  0.]", shape="box"] ;
832 -> 833 ;
834 [label="gini = 0.0000\nsamples = 1\nvalue = [ 0.  0.  0.  0.  1.  0.  0.  0.  0.  0.  0.  0.]", shape="box"] ;
832 -> 834 ;
835 [label="X[1] <= 0.5450\ngini = 0.856328125\nsamples = 160", shape="box"] ;
729 -> 835 ;
836 [label="X[1] <= 0.5250\ngini = 0.714285714286\nsamples = 14", shape="box"] ;
835 -> 836 ;
837 [label="X[2] <= 2007.5000\ngini = 0.75\nsamples = 8", shape="box"] ;
836 -> 837 ;
838 [label="X[1] <= 0.5150\ngini = 0.625\nsamples = 4", shape="box"] ;
837 -> 838 ;
839 [label="gini = 0.5000\nsamples = 2\nvalue = [ 0.  0.  0.  0.  0.  0.  1.  0.  0.  1.  0.  0.]", shape="box"] ;
838 -> 839 ;
840 [label="gini = 0.0000\nsamples = 2\nvalue = [ 0.  0.  0.  0.  2.  0.  0.  0.  0.  0.  0.  0.]", shape="box"] ;
838 -> 840 ;
841 [label="X[1] <= 0.5150\ngini = 0.625\nsamples = 4", shape="box"] ;
837 -> 841 ;
842 [label="gini = 0.0000\nsamples = 1\nvalue = [ 0.  0.  0.  0.  1.  0.  0.  0.  0.  0.  0.  0.]", shape="box"] ;
841 -> 842 ;
843 [label="gini = 0.4444\nsamples = 3\nvalue = [ 0.  0.  2.  0.  0.  0.  0.  0.  0.  0.  0.  1.]", shape="box"] ;
841 -> 843 ;
844 [label="X[2] <= 2006.5000\ngini = 0.444444444444\nsamples = 6", shape="box"] ;
836 -> 844 ;
845 [label="gini = 0.0000\nsamples = 1\nvalue = [ 0.  0.  0.  0.  0.  0.  0.  0.  0.  0.  0.  1.]", shape="box"] ;
844 -> 845 ;
846 [label="X[2] <= 2007.5000\ngini = 0.48\nsamples = 5", shape="box"] ;
844 -> 846 ;
847 [label="gini = 0.0000\nsamples = 1\nvalue = [ 0.  0.  0.  0.  1.  0.  0.  0.  0.  0.  0.  0.]", shape="box"] ;
846 -> 847 ;
848 [label="gini = 0.3750\nsamples = 4\nvalue = [ 0.  0.  0.  0.  1.  0.  0.  0.  0.  0.  0.  3.]", shape="box"] ;
846 -> 848 ;
849 [label="X[1] <= 1.3350\ngini = 0.858697691875\nsamples = 146", shape="box"] ;
835 -> 849 ;
850 [label="X[1] <= 1.0650\ngini = 0.84410430839\nsamples = 84", shape="box"] ;
849 -> 850 ;
851 [label="X[1] <= 0.7350\ngini = 0.863321799308\nsamples = 68", shape="box"] ;
850 -> 851 ;
852 [label="X[1] <= 0.6050\ngini = 0.783163265306\nsamples = 28", shape="box"] ;
851 -> 852 ;
853 [label="X[1] <= 0.5550\ngini = 0.84375\nsamples = 16", shape="box"] ;
852 -> 853 ;
854 [label="gini = 0.5000\nsamples = 2\nvalue = [ 1.  0.  0.  0.  0.  0.  1.  0.  0.  0.  0.  0.]", shape="box"] ;
853 -> 854 ;
855 [label="X[2] <= 2006.5000\ngini = 0.816326530612\nsamples = 14", shape="box"] ;
853 -> 855 ;
856 [label="X[2] <= 2005.5000\ngini = 0.666666666667\nsamples = 3", shape="box"] ;
855 -> 856 ;
857 [label="gini = 0.0000\nsamples = 1\nvalue = [ 0.  0.  0.  0.  0.  0.  1.  0.  0.  0.  0.  0.]", shape="box"] ;
856 -> 857 ;
858 [label="X[1] <= 0.5700\ngini = 0.5\nsamples = 2", shape="box"] ;
856 -> 858 ;
859 [label="gini = 0.0000\nsamples = 1\nvalue = [ 0.  0.  0.  0.  0.  0.  0.  0.  0.  0.  0.  1.]", shape="box"] ;
858 -> 859 ;
860 [label="gini = 0.0000\nsamples = 1\nvalue = [ 0.  0.  0.  1.  0.  0.  0.  0.  0.  0.  0.  0.]", shape="box"] ;
858 -> 860 ;
861 [label="X[1] <= 0.5650\ngini = 0.743801652893\nsamples = 11", shape="box"] ;
855 -> 861 ;
862 [label="X[2] <= 2007.5000\ngini = 0.625\nsamples = 4", shape="box"] ;
861 -> 862 ;
863 [label="gini = 0.5000\nsamples = 2\nvalue = [ 0.  1.  0.  0.  0.  0.  0.  0.  0.  1.  0.  0.]", shape="box"] ;
862 -> 863 ;
864 [label="gini = 0.5000\nsamples = 2\nvalue = [ 0.  0.  0.  0.  1.  0.  0.  0.  0.  1.  0.  0.]", shape="box"] ;
862 -> 864 ;
865 [label="X[2] <= 2007.5000\ngini = 0.69387755102\nsamples = 7", shape="box"] ;
861 -> 865 ;
866 [label="X[1] <= 0.5750\ngini = 0.625\nsamples = 4", shape="box"] ;
865 -> 866 ;
867 [label="gini = 0.0000\nsamples = 1\nvalue = [ 0.  0.  0.  1.  0.  0.  0.  0.  0.  0.  0.  0.]", shape="box"] ;
866 -> 867 ;
868 [label="X[1] <= 0.5850\ngini = 0.444444444444\nsamples = 3", shape="box"] ;
866 -> 868 ;
869 [label="gini = 0.0000\nsamples = 1\nvalue = [ 0.  0.  1.  0.  0.  0.  0.  0.  0.  0.  0.  0.]", shape="box"] ;
868 -> 869 ;
870 [label="X[1] <= 0.5950\ngini = 0.5\nsamples = 2", shape="box"] ;
868 -> 870 ;
871 [label="gini = 0.0000\nsamples = 1\nvalue = [ 0.  0.  0.  0.  1.  0.  0.  0.  0.  0.  0.  0.]", shape="box"] ;
870 -> 871 ;
872 [label="gini = 0.0000\nsamples = 1\nvalue = [ 0.  0.  1.  0.  0.  0.  0.  0.  0.  0.  0.  0.]", shape="box"] ;
870 -> 872 ;
873 [label="X[1] <= 0.5750\ngini = 0.444444444444\nsamples = 3", shape="box"] ;
865 -> 873 ;
874 [label="gini = 0.5000\nsamples = 2\nvalue = [ 0.  0.  1.  0.  0.  0.  0.  0.  0.  1.  0.  0.]", shape="box"] ;
873 -> 874 ;
875 [label="gini = 0.0000\nsamples = 1\nvalue = [ 0.  0.  0.  0.  0.  0.  0.  0.  0.  1.  0.  0.]", shape="box"] ;
873 -> 875 ;
876 [label="X[1] <= 0.6450\ngini = 0.569444444444\nsamples = 12", shape="box"] ;
852 -> 876 ;
877 [label="X[2] <= 2007.5000\ngini = 0.375\nsamples = 4", shape="box"] ;
876 -> 877 ;
878 [label="X[1] <= 0.6250\ngini = 0.5\nsamples = 2", shape="box"] ;
877 -> 878 ;
879 [label="gini = 0.0000\nsamples = 1\nvalue = [ 0.  0.  0.  0.  1.  0.  0.  0.  0.  0.  0.  0.]", shape="box"] ;
878 -> 879 ;
880 [label="gini = 0.0000\nsamples = 1\nvalue = [ 0.  0.  0.  0.  0.  0.  0.  0.  0.  1.  0.  0.]", shape="box"] ;
878 -> 880 ;
881 [label="gini = 0.0000\nsamples = 2\nvalue = [ 0.  0.  0.  0.  0.  0.  0.  0.  0.  2.  0.  0.]", shape="box"] ;
877 -> 881 ;
882 [label="X[1] <= 0.6850\ngini = 0.53125\nsamples = 8", shape="box"] ;
876 -> 882 ;
883 [label="X[1] <= 0.6650\ngini = 0.32\nsamples = 5", shape="box"] ;
882 -> 883 ;
884 [label="gini = 0.0000\nsamples = 3\nvalue = [ 0.  0.  0.  0.  3.  0.  0.  0.  0.  0.  0.  0.]", shape="box"] ;
883 -> 884 ;
885 [label="X[2] <= 2006.5000\ngini = 0.5\nsamples = 2", shape="box"] ;
883 -> 885 ;
886 [label="gini = 0.0000\nsamples = 1\nvalue = [ 0.  0.  0.  0.  1.  0.  0.  0.  0.  0.  0.  0.]", shape="box"] ;
885 -> 886 ;
887 [label="gini = 0.0000\nsamples = 1\nvalue = [ 0.  0.  0.  1.  0.  0.  0.  0.  0.  0.  0.  0.]", shape="box"] ;
885 -> 887 ;
888 [label="X[1] <= 0.7150\ngini = 0.444444444444\nsamples = 3", shape="box"] ;
882 -> 888 ;
889 [label="gini = 0.0000\nsamples = 1\nvalue = [ 0.  0.  0.  0.  0.  0.  0.  0.  0.  1.  0.  0.]", shape="box"] ;
888 -> 889 ;
890 [label="gini = 0.5000\nsamples = 2\nvalue = [ 0.  0.  0.  0.  1.  0.  0.  0.  0.  1.  0.  0.]", shape="box"] ;
888 -> 890 ;
891 [label="X[1] <= 0.9850\ngini = 0.8825\nsamples = 40", shape="box"] ;
851 -> 891 ;
892 [label="X[1] <= 0.7450\ngini = 0.857777777778\nsamples = 30", shape="box"] ;
891 -> 892 ;
893 [label="gini = 0.0000\nsamples = 1\nvalue = [ 0.  0.  0.  0.  0.  1.  0.  0.  0.  0.  0.  0.]", shape="box"] ;
892 -> 893 ;
894 [label="X[1] <= 0.9700\ngini = 0.848989298454\nsamples = 29", shape="box"] ;
892 -> 894 ;
895 [label="X[2] <= 2004.5000\ngini = 0.841836734694\nsamples = 28", shape="box"] ;
894 -> 895 ;
896 [label="gini = 0.0000\nsamples = 1\nvalue = [ 0.  0.  0.  0.  0.  0.  0.  1.  0.  0.  0.  0.]", shape="box"] ;
895 -> 896 ;
897 [label="X[2] <= 2005.5000\ngini = 0.831275720165\nsamples = 27", shape="box"] ;
895 -> 897 ;
898 [label="X[1] <= 0.8600\ngini = 0.5\nsamples = 2", shape="box"] ;
897 -> 898 ;
899 [label="gini = 0.0000\nsamples = 1\nvalue = [ 0.  0.  0.  0.  1.  0.  0.  0.  0.  0.  0.  0.]", shape="box"] ;
898 -> 899 ;
900 [label="gini = 0.0000\nsamples = 1\nvalue = [ 0.  0.  0.  0.  0.  0.  0.  0.  0.  1.  0.  0.]", shape="box"] ;
898 -> 900 ;
901 [label="X[2] <= 2006.5000\ngini = 0.8192\nsamples = 25", shape="box"] ;
897 -> 901 ;
902 [label="X[1] <= 0.7950\ngini = 0.444444444444\nsamples = 3", shape="box"] ;
901 -> 902 ;
903 [label="gini = 0.0000\nsamples = 1\nvalue = [ 0.  0.  0.  0.  0.  0.  0.  0.  1.  0.  0.  0.]", shape="box"] ;
902 -> 903 ;
904 [label="gini = 0.0000\nsamples = 2\nvalue = [ 0.  0.  2.  0.  0.  0.  0.  0.  0.  0.  0.  0.]", shape="box"] ;
902 -> 904 ;
905 [label="X[1] <= 0.9550\ngini = 0.830578512397\nsamples = 22", shape="box"] ;
901 -> 905 ;
906 [label="X[1] <= 0.8550\ngini = 0.829931972789\nsamples = 21", shape="box"] ;
905 -> 906 ;
907 [label="X[2] <= 2007.5000\ngini = 0.743801652893\nsamples = 11", shape="box"] ;
906 -> 907 ;
908 [label="X[1] <= 0.7700\ngini = 0.625\nsamples = 4", shape="box"] ;
907 -> 908 ;
909 [label="gini = 0.0000\nsamples = 1\nvalue = [ 0.  0.  0.  0.  0.  0.  0.  0.  0.  0.  0.  1.]", shape="box"] ;
908 -> 909 ;
910 [label="X[1] <= 0.8200\ngini = 0.444444444444\nsamples = 3", shape="box"] ;
908 -> 910 ;
911 [label="gini = 0.0000\nsamples = 1\nvalue = [ 0.  0.  1.  0.  0.  0.  0.  0.  0.  0.  0.  0.]", shape="box"] ;
910 -> 911 ;
912 [label="gini = 0.5000\nsamples = 2\nvalue = [ 1.  0.  1.  0.  0.  0.  0.  0.  0.  0.  0.  0.]", shape="box"] ;
910 -> 912 ;
913 [label="X[1] <= 0.8100\ngini = 0.734693877551\nsamples = 7", shape="box"] ;
907 -> 913 ;
914 [label="X[1] <= 0.7600\ngini = 0.64\nsamples = 5", shape="box"] ;
913 -> 914 ;
915 [label="gini = 0.5000\nsamples = 2\nvalue = [ 1.  0.  1.  0.  0.  0.  0.  0.  0.  0.  0.  0.]", shape="box"] ;
914 -> 915 ;
916 [label="X[1] <= 0.7800\ngini = 0.666666666667\nsamples = 3", shape="box"] ;
914 -> 916 ;
