digraph Tree {
0 [label="X[3] <= 0.5000\ngini = 0.891403749428\nsamples = 162", shape="box"] ;
1 [label="gini = 0.0000\nsamples = 22\nvalue = [ 22.   0.   0.   0.   0.   0.   0.   0.   0.   0.   0.   0.]", shape="box"] ;
0 -> 1 ;
2 [label="X[3] <= 2.5000\ngini = 0.879285714286\nsamples = 140", shape="box"] ;
0 -> 2 ;
3 [label="X[3] <= 1.5000\ngini = 0.314098750744\nsamples = 41", shape="box"] ;
2 -> 3 ;
4 [label="gini = 0.0000\nsamples = 8\nvalue = [ 0.  8.  0.  0.  0.  0.  0.  0.  0.  0.  0.  0.]", shape="box"] ;
3 -> 4 ;
5 [label="gini = 0.0000\nsamples = 33\nvalue = [  0.   0.  33.   0.   0.   0.   0.   0.   0.   0.   0.   0.]", shape="box"] ;
3 -> 5 ;
6 [label="X[3] <= 4.5000\ngini = 0.876237118661\nsamples = 99", shape="box"] ;
2 -> 6 ;
7 [label="X[3] <= 3.5000\ngini = 0.488165680473\nsamples = 26", shape="box"] ;
6 -> 7 ;
8 [label="gini = 0.0000\nsamples = 11\nvalue = [  0.   0.   0.  11.   0.   0.   0.   0.   0.   0.   0.   0.]", shape="box"] ;
7 -> 8 ;
9 [label="gini = 0.0000\nsamples = 15\nvalue = [  0.   0.   0.   0.  15.   0.   0.   0.   0.   0.   0.   0.]", shape="box"] ;
7 -> 9 ;
10 [label="X[3] <= 8.5000\ngini = 0.837305310565\nsamples = 73", shape="box"] ;
6 -> 10 ;
11 [label="X[3] <= 7.5000\ngini = 0.692743764172\nsamples = 42", shape="box"] ;
10 -> 11 ;
12 [label="X[3] <= 6.5000\ngini = 0.576923076923\nsamples = 26", shape="box"] ;
11 -> 12 ;
13 [label="X[3] <= 5.5000\ngini = 0.495867768595\nsamples = 11", shape="box"] ;
12 -> 13 ;
14 [label="gini = 0.0000\nsamples = 5\nvalue = [ 0.  0.  0.  0.  0.  5.  0.  0.  0.  0.  0.  0.]", shape="box"] ;
13 -> 14 ;
15 [label="gini = 0.0000\nsamples = 6\nvalue = [ 0.  0.  0.  0.  0.  0.  6.  0.  0.  0.  0.  0.]", shape="box"] ;
13 -> 15 ;
16 [label="gini = 0.0000\nsamples = 15\nvalue = [  0.   0.   0.   0.   0.   0.   0.  15.   0.   0.   0.   0.]", shape="box"] ;
12 -> 16 ;
17 [label="gini = 0.0000\nsamples = 16\nvalue = [  0.   0.   0.   0.   0.   0.   0.   0.  16.   0.   0.   0.]", shape="box"] ;
11 -> 17 ;
18 [label="X[3] <= 9.5000\ngini = 0.661810613944\nsamples = 31", shape="box"] ;
10 -> 18 ;
19 [label="gini = 0.0000\nsamples = 10\nvalue = [  0.   0.   0.   0.   0.   0.   0.   0.   0.  10.   0.   0.]", shape="box"] ;
18 -> 19 ;
20 [label="X[3] <= 10.5000\ngini = 0.489795918367\nsamples = 21", shape="box"] ;
18 -> 20 ;
21 [label="gini = 0.0000\nsamples = 12\nvalue = [  0.   0.   0.   0.   0.   0.   0.   0.   0.   0.  12.   0.]", shape="box"] ;
20 -> 21 ;
22 [label="gini = 0.0000\nsamples = 9\nvalue = [ 0.  0.  0.  0.  0.  0.  0.  0.  0.  0.  0.  9.]", shape="box"] ;
20 -> 22 ;
}